. -0.014509 -0.198080 0.073241 0.115379 0.093222 -0.024671 0.043311 0.074042 -0.000351 0.036594 0.168309 0.048969 -0.017342 0.121040 -0.032015 0.153668 0.033039 -0.046096 -0.010528 -0.017126 -0.152549 0.137258 -0.073985 0.156620 0.057317 0.159425 -0.087443 -0.020460 0.211453 -0.054756 -0.013753 -0.238416 -0.111005 0.085500 0.026223 -0.027278 0.070721 0.194380 -0.153550 -0.037126 -0.002925 0.210762 -0.131303 0.009270 -0.106332 -0.005118 0.062038 0.015438 -0.105722 -0.116347 -0.126106 -0.060844 0.066501 0.191820 0.145549 -0.156779 -0.030544 0.186840 -0.029088 0.045927 -0.055489 0.048888 -0.185493 -0.047999 0.107620 0.044520 0.080265 0.089014 -0.149964 0.076493 0.009651 0.176591 0.182385 -0.052641 -0.033109 -0.058982 0.008055 -0.027317 0.039415 -0.126777 -0.040118 0.103290 0.098312 0.066065 -0.181494 0.113868 0.174684 0.061836 0.042258 -0.106438 0.049481 -0.018823 -0.065381 -0.194239 0.083927 0.033539 -0.012886 -0.066613 -0.036247 0.023953 -0.017121 0.018523 -0.014679 0.086911 0.128741 0.077972 0.017446 -0.091938 0.073312 0.195231 -0.070866 -0.041037 -0.044122 -0.051754 -0.066381 -0.156981 0.068172 0.141224 0.016467 0.056894 0.075947 -0.062987 -0.078146 0.088033 0.055414 -0.065950 -0.106261 0.080197 0.118369 0.060834 0.005251 -0.002491 -0.040413 -0.281439 -0.026101 0.207830 -0.236260 -0.021664 0.059208 0.032465 -0.144613 0.075037 -0.137562 0.201886 0.137555 -0.095145 -0.070127 -0.087112 0.005109 -0.171120 -0.092504 0.063606 0.212121 -0.079711 0.062483 -0.027789 -0.179327 0.048247 -0.091152 -0.043670 0.070319 0.110087 -0.132176 -0.188913 0.028825 0.020297 -0.145189 -0.047369 -0.121978 0.198310 0.180435 -0.046532 0.062814 -0.054610 0.078077 0.110287 -0.065889 0.012477 -0.118730 -0.169807 -0.291078 -0.016705 -0.034108 0.205816 0.002630 0.028613 -0.037983 0.070959 -0.004829 -0.007634 0.049380 0.167672 -0.049475 -0.050202 0.033529 -0.020594 -0.018549 0.122984 0.003025 -0.112355 0.139994 0.191997 -0.051981 -0.059407 0.024122 -0.029526 0.111418 -0.033104 -0.053790 -0.087604 0.238950 -0.225831 0.037395 -0.032884 -0.084805 -0.037820 -0.054864 -0.116154 0.206411 0.063990 -0.127754 -0.042928 -0.191588 0.120271 -0.001011 -0.036492 0.037057 -0.047108 0.130834 0.143821 0.015443 -0.048580 -0.074152 0.004957 -0.018612 -0.081466 -0.005868 -0.034390 0.067443 -0.142753 -0.008921 -0.121825 0.083830 -0.002344 0.276099 -0.074331 0.122912 -0.083098 0.005970 -0.063708 0.069723 -0.051624 -0.118345 0.141165 0.086795 0.074443 0.039643 -0.019100 0.038981 -0.164853 -0.134445 -0.047338 -0.064626 -0.214582 0.021961 0.076777 0.117649 -0.004050 0.005426 0.035233 -0.060064 -0.040177 -0.135176 0.030756 0.041413 -0.078200 0.129215 0.029558 -0.086206 0.058082 0.111696 -0.150460 -0.052613 -0.051797 0.006246 0.102832 -0.045158 0.011555 -0.130057 -0.014144 -0.045097 0.051360 0.030051 -0.048234 -0.135379 -0.046552 -0.241598 0.021354 0.093302 -0.113033
SCV 0.058328 0.145487 0.018469 0.182709 -0.472305 0.043063 0.804033 0.337104 -0.197629 0.095496 0.000328 0.015075 -0.546825 -0.046567 0.371309 -0.371480 0.036314 -0.087870 -0.605250 0.402639 0.370859 -0.012926 0.102149 0.114706 0.185842 0.669240 -0.023344 -0.071639 -0.399575 0.205013 0.007258 0.250670 0.046512 -0.061543 -0.426941 0.032608 -0.252327 0.026337 0.105156 -0.001410 -0.150093 -0.322696 0.197930 -0.030168 0.286826 -0.590235 -0.341208 -0.101902 0.539487 0.259154 0.038155 0.286999 0.002844 -0.535343 -0.302066 0.308630 0.093203 -0.399556 -0.007141 0.011188 0.147345 -0.030429 0.367288 0.213012 -0.461727 0.095962 -0.149534 -0.244884 0.101940 -0.239316 0.155596 0.096865 -0.211074 -0.282025 -0.011066 -0.441918 0.330816 -0.149142 0.029717 -0.087757 0.734568 0.227643 0.100650 -0.296616 0.140822 -0.787809 0.010115 -0.140406 -0.530284 -0.053493 -0.159069 0.190528 -0.150174 0.320586 0.039575 0.167984 -0.021247 0.310745 0.046924 -0.282311 0.176555 -0.010354 -0.243568 0.026631 0.126104 -0.400260 -0.118027 0.053989 0.030971 -0.085909 -0.130834 -0.082022 -0.090122 -0.091475 0.035561 -0.091363 0.408846 0.319640 -0.177873 -0.077481 0.057624 0.433409 0.010753 -0.079222 -0.407926 0.147261 0.343206 -0.491001 0.025789 -0.098248 -0.399210 -0.003061 0.154990 0.685889 -0.092663 -0.170490 0.072684 -0.156089 0.244313 -0.215942 0.148879 -0.031205 0.116880 -0.547136 -0.229967 0.241395 0.336762 -0.317951 0.129765 0.166897 0.150229 -0.930835 -0.419828 0.275771 -0.086424 0.003743 -0.444779 0.212373 -0.156833 -0.155918 0.285591 0.077277 0.102176 0.435471 -0.534842 -0.338752 0.558844 0.327313 0.224636 -0.433722 -0.150550 0.328647 -0.134678 -0.151635 -0.322815 -0.340861 -0.034471 -0.211025 -0.015677 0.161987 0.331858 0.094948 -0.092972 -0.052293 -0.122195 -0.473370 0.128735 0.060975 -0.316082 -0.026736 0.314682 0.207636 0.023523 -0.080010 0.223862 0.441878 -0.175778 -0.558968 -0.136508 0.565650 0.058245 -0.184852 -0.289189 0.373854 -0.537977 -0.103287 -0.209586 -0.278980 0.313853 0.183047 0.205531 -0.068783 -0.221494 0.087867 -0.028762 -0.064779 0.070378 0.034151 -0.383754 0.174411 -0.025825 0.150218 -0.018935 -0.246871 -0.158244 0.448800 -0.013297 -0.094011 -0.393293 -0.337988 -0.404305 0.326068 -0.229322 0.397760 -0.066789 -0.068776 0.214287 0.172657 0.109942 0.050245 0.417433 0.387662 0.290430 0.221040 -0.269545 0.339872 0.066991 0.249169 0.379767 0.145329 -0.183713 0.318570 0.090357 -0.394244 -0.040002 0.060403 -0.433227 0.156234 -0.281084 0.623233 0.457443 -0.491627 -0.185110 0.142473 -0.045427 0.005374 -0.068118 0.247046 -0.352999 -0.345370 -0.071408 -0.165485 0.102969 -0.334664 0.152588 0.264209 -0.373711 0.229113 -0.017985 -0.057933 -0.023385 -0.501820 0.220542 0.160902 -0.108133 -0.156203 -0.192067 -0.082824 0.125867 0.215461 0.661706 0.221764 -0.353981 -0.340887 0.153727 -0.246527 -0.093026 0.243825 0.102811 0.228469
Barracks 0.036267 0.118943 0.017002 0.167159 -0.418459 0.041260 0.839577 0.350547 -0.223258 0.100913 -0.000590 -0.008268 -0.529867 -0.029699 0.395411 -0.277286 0.041056 -0.091166 -0.580200 0.389971 0.353429 0.024182 0.130961 0.139542 0.218641 0.663363 -0.041783 -0.075572 -0.388817 0.213268 0.010978 0.223111 -0.002137 -0.044706 -0.401081 0.002848 -0.234204 0.024328 0.090334 0.014305 -0.156396 -0.294067 0.181466 -0.032614 0.273740 -0.543394 -0.320160 -0.098609 0.495101 0.239823 0.026600 0.290320 0.014854 -0.497570 -0.255125 0.265989 0.072757 -0.344973 0.042459 0.027409 0.139134 -0.067863 0.357230 0.218069 -0.439390 0.070722 -0.120689 -0.212474 0.075178 -0.212741 0.148238 0.119616 -0.217778 -0.273551 -0.016893 -0.433169 0.314134 -0.158462 0.026395 -0.124327 0.715478 0.211496 0.110336 -0.263079 0.109001 -0.734760 0.051348 -0.133659 -0.549916 -0.102709 -0.130657 0.199401 -0.146259 0.270461 0.039680 0.147551 -0.028425 0.301279 0.030666 -0.272349 0.155268 -0.009875 -0.215229 0.061120 0.187383 -0.365386 -0.148681 0.049358 0.048789 -0.073915 -0.153382 -0.064450 -0.107046 -0.105558 0.069753 -0.109734 0.431284 0.304785 -0.147659 -0.072416 0.042355 0.378577 -0.027836 -0.057023 -0.384652 0.133862 0.329013 -0.458357 0.054759 -0.120613 -0.391820 -0.038678 0.122101 0.626900 -0.090837 -0.132458 -0.006499 -0.148697 0.226572 -0.215725 0.114127 -0.017663 0.114887 -0.511106 -0.233383 0.216893 0.299304 -0.320231 0.092510 0.127367 0.133035 -0.879851 -0.364573 0.262746 -0.084011 0.018633 -0.444166 0.242018 -0.131967 -0.174450 0.297439 0.090110 0.099512 0.393735 -0.495539 -0.324375 0.525179 0.333615 0.228959 -0.378714 -0.109503 0.316312 -0.130297 -0.149111 -0.301987 -0.293579 -0.039880 -0.187161 -0.039141 0.125507 0.264181 0.101553 -0.106268 0.001888 -0.117112 -0.428949 0.118620 0.068077 -0.286813 -0.009382 0.323783 0.250135 0.054453 -0.103514 0.253616 0.426127 -0.173504 -0.562540 -0.134775 0.540123 0.073245 -0.176773 -0.304174 0.322950 -0.513184 -0.122659 -0.174729 -0.313577 0.287842 0.162044 0.255477 -0.106245 -0.173558 0.076596 -0.041629 -0.023716 0.067618 0.008429 -0.348472 0.173557 -0.043765 0.136433 -0.049754 -0.245569 -0.137265 0.432656 -0.025730 -0.111729 -0.381293 -0.321650 -0.387369 0.328127 -0.236891 0.360459 -0.093841 -0.067969 0.203548 0.150689 0.093456 0.025055 0.423442 0.357679 0.295980 0.210784 -0.224523 0.341029 0.101814 0.238187 0.394172 0.126088 -0.182803 0.286120 0.065362 -0.333766 0.001956 0.092816 -0.404761 0.140103 -0.281034 0.583031 0.425138 -0.468799 -0.153513 0.115546 -0.028001 0.022936 -0.006982 0.253996 -0.346167 -0.342535 -0.081708 -0.183908 0.077589 -0.307114 0.123556 0.265536 -0.328906 0.226550 -0.048573 -0.032151 -0.038408 -0.512507 0.221930 0.145095 -0.099814 -0.124819 -0.177892 -0.063111 0.139604 0.220502 0.642420 0.216146 -0.329982 -0.324704 0.125595 -0.264110 -0.130729 0.270338 0.088690 0.184931
SupplyDepot 0.037226 0.114525 0.012166 0.173662 -0.453004 0.049330 0.909610 0.383176 -0.226402 0.106821 0.006233 -0.014493 -0.553652 -0.040865 0.411400 -0.300133 0.035243 -0.085859 -0.619640 0.414181 0.357734 0.014381 0.129535 0.150112 0.227973 0.691474 -0.033040 -0.084078 -0.405368 0.224995 0.011455 0.229410 0.006545 -0.045339 -0.428189 0.013474 -0.241875 0.016783 0.099535 0.015508 -0.159715 -0.303763 0.184967 -0.036087 0.281342 -0.572808 -0.351090 -0.101335 0.523803 0.241976 0.033659 0.296883 0.018497 -0.524725 -0.285230 0.269394 0.074863 -0.358618 0.042344 0.022207 0.156699 -0.055601 0.369087 0.229065 -0.461350 0.074701 -0.124788 -0.223460 0.076527 -0.217138 0.158479 0.114211 -0.239480 -0.302544 -0.017184 -0.446079 0.327743 -0.168303 0.019577 -0.157334 0.744586 0.232041 0.115669 -0.273046 0.136450 -0.760677 0.046537 -0.139523 -0.582058 -0.098708 -0.144870 0.213404 -0.148067 0.283015 0.055574 0.145206 -0.013789 0.323244 0.020758 -0.307995 0.165576 -0.006896 -0.224910 0.074043 0.176904 -0.373210 -0.149507 0.056639 0.039242 -0.070157 -0.160892 -0.066154 -0.095940 -0.095071 0.067057 -0.120424 0.432836 0.307668 -0.161613 -0.073365 0.041071 0.396158 -0.017605 -0.054319 -0.404446 0.129157 0.346095 -0.468026 0.056568 -0.123212 -0.400414 -0.042867 0.134691 0.655684 -0.101526 -0.156390 0.005429 -0.160108 0.230497 -0.221316 0.121537 -0.016270 0.125556 -0.536915 -0.249156 0.223622 0.310032 -0.321185 0.103113 0.146147 0.123472 -0.890192 -0.377812 0.260464 -0.077429 0.006775 -0.421161 0.225237 -0.130141 -0.170001 0.284672 0.092203 0.095171 0.407477 -0.503107 -0.329248 0.537196 0.334520 0.227183 -0.386722 -0.130896 0.332259 -0.133087 -0.145037 -0.315283 -0.316967 -0.034908 -0.191413 -0.016085 0.127190 0.289256 0.099338 -0.107181 -0.002225 -0.127189 -0.454529 0.106116 0.067363 -0.297309 -0.010988 0.337275 0.264241 0.040338 -0.117255 0.256437 0.435741 -0.185525 -0.571969 -0.134710 0.563929 0.075249 -0.179130 -0.313475 0.328474 -0.518424 -0.134991 -0.175598 -0.310736 0.299544 0.165924 0.241516 -0.094498 -0.190543 0.075576 -0.023811 -0.019664 0.074088 0.007638 -0.376902 0.193842 -0.018310 0.138481 -0.027262 -0.251820 -0.132583 0.442033 -0.036235 -0.125042 -0.387633 -0.325845 -0.388420 0.327634 -0.232369 0.378589 -0.087325 -0.073612 0.199961 0.140551 0.083366 0.042926 0.418171 0.359759 0.268842 0.191137 -0.237436 0.341435 0.085172 0.237719 0.394786 0.128174 -0.185459 0.282454 0.066732 -0.346024 0.003098 0.099288 -0.409340 0.130348 -0.290041 0.592958 0.447926 -0.494659 -0.147562 0.130019 -0.030272 0.024276 -0.001030 0.269736 -0.346366 -0.354611 -0.082747 -0.187005 0.087813 -0.308846 0.125186 0.262908 -0.349275 0.228029 -0.067135 -0.037082 -0.036178 -0.518111 0.210396 0.145696 -0.084134 -0.131899 -0.179895 -0.063933 0.145385 0.204746 0.652647 0.226639 -0.332027 -0.316663 0.122654 -0.263248 -0.110714 0.258811 0.072644 0.197485
OrbitalCommand -0.043032 -0.003103 0.007579 0.131927 -0.333880 0.068472 1.126631 0.460926 -0.299583 0.131186 0.015944 -0.106539 -0.538858 0.041987 0.470816 -0.054607 0.059835 -0.090613 -0.638151 0.434911 0.312949 0.120811 0.211377 0.256336 0.389011 0.805862 -0.072136 -0.146241 -0.415120 0.247578 0.041306 0.118030 -0.151681 0.037173 -0.432231 -0.083936 -0.185348 0.006707 0.059506 0.013942 -0.195689 -0.253537 0.096378 -0.045714 0.249837 -0.508466 -0.364969 -0.073077 0.462336 0.132529 0.027910 0.315546 0.067684 -0.451534 -0.201921 0.129566 0.020731 -0.180471 0.177848 0.051142 0.159347 -0.161787 0.331662 0.274076 -0.424271 0.019889 -0.019104 -0.137598 -0.018006 -0.126617 0.162256 0.189491 -0.281237 -0.357268 -0.072385 -0.426912 0.316511 -0.199175 -0.032632 -0.327898 0.732875 0.212704 0.123147 -0.166543 0.093294 -0.622674 0.136217 -0.121591 -0.681915 -0.213290 -0.093252 0.278298 -0.155010 0.108586 0.084035 0.085339 0.013170 0.329381 -0.044394 -0.363189 0.095643 0.012719 -0.150763 0.179835 0.316659 -0.334224 -0.265218 0.087177 0.075358 -0.025081 -0.276314 0.018477 -0.136977 -0.081199 0.150638 -0.223530 0.522583 0.294469 -0.113525 -0.043682 0.015538 0.254245 -0.152868 0.017383 -0.354019 0.075062 0.345147 -0.390173 0.158731 -0.209360 -0.404456 -0.175412 0.063608 0.530470 -0.137558 -0.084262 -0.224906 -0.158292 0.193846 -0.240628 0.024727 0.003189 0.128793 -0.483918 -0.299389 0.161642 0.184539 -0.347472 0.026933 0.074683 0.053290 -0.735668 -0.238495 0.238342 -0.061000 0.020474 -0.408489 0.309287 -0.069832 -0.244560 0.333704 0.119845 0.091985 0.306157 -0.416258 -0.320528 0.488349 0.345090 0.226963 -0.218664 -0.036176 0.352877 -0.120796 -0.152907 -0.280337 -0.235668 -0.070215 -0.127746 -0.081285 0.020498 0.115928 0.109925 -0.158567 0.176541 -0.134919 -0.366756 0.045962 0.087074 -0.227851 0.037946 0.373128 0.402214 0.111857 -0.215011 0.350571 0.415799 -0.207893 -0.601892 -0.111811 0.582899 0.112389 -0.117820 -0.378197 0.200549 -0.455679 -0.240708 -0.057467 -0.394290 0.227497 0.125312 0.370067 -0.168273 -0.110264 0.007614 -0.045002 0.117440 0.069587 -0.058646 -0.292157 0.217885 -0.049746 0.077056 -0.081544 -0.256583 -0.069789 0.414702 -0.092119 -0.215449 -0.345133 -0.268851 -0.348014 0.314529 -0.251634 0.284897 -0.131363 -0.071553 0.179772 0.043265 0.005014 0.038242 0.391437 0.262522 0.235030 0.099374 -0.150922 0.310613 0.147102 0.192372 0.448157 0.081212 -0.174819 0.146192 -0.045894 -0.189313 0.118599 0.182333 -0.355897 0.069039 -0.310868 0.475306 0.404288 -0.457446 -0.060604 0.071673 0.010376 0.129140 0.154287 0.303631 -0.329783 -0.382283 -0.106654 -0.226660 0.018348 -0.237589 0.037129 0.250163 -0.255944 0.231441 -0.197409 0.013981 -0.080529 -0.588384 0.204258 0.061081 -0.035703 -0.036515 -0.126730 0.004320 0.175555 0.219129 0.639635 0.209657 -0.279019 -0.250776 0.012202 -0.324595 -0.181588 0.313365 0.015040 0.092809
Marine -0.100461 -0.065628 -0.010341 0.106040 -0.231433 0.040822 1.129524 0.458987 -0.322297 0.161304 0.020759 -0.141476 -0.508184 0.075556 0.488164 0.080303 0.070220 -0.095981 -0.577622 0.410457 0.287175 0.173725 0.247646 0.299014 0.441871 0.786538 -0.086304 -0.161350 -0.396768 0.237199 0.043500 0.067008 -0.245959 0.064383 -0.384306 -0.121305 -0.135728 0.010638 0.019540 0.034674 -0.209922 -0.204623 0.044403 -0.057377 0.201419 -0.407432 -0.320934 -0.060856 0.365501 0.071222 -0.004384 0.307895 0.077140 -0.362888 -0.119633 0.058234 -0.013993 -0.070828 0.245818 0.072999 0.152889 -0.198944 0.290438 0.276613 -0.370102 -0.028902 0.031742 -0.074476 -0.078408 -0.065030 0.146201 0.237633 -0.296150 -0.362301 -0.107242 -0.405926 0.283645 -0.184011 -0.052305 -0.368067 0.653584 0.176882 0.109012 -0.088749 0.064588 -0.498986 0.168929 -0.103911 -0.656813 -0.260169 -0.053684 0.268788 -0.124134 0.027507 0.097311 0.040612 0.023017 0.307190 -0.076614 -0.339748 0.066374 0.036229 -0.099539 0.219203 0.360839 -0.275078 -0.295486 0.092895 0.092096 -0.005587 -0.309722 0.034822 -0.157400 -0.078457 0.191762 -0.260466 0.529568 0.263637 -0.064600 -0.026241 -0.005875 0.157082 -0.201832 0.061514 -0.288282 0.041172 0.323668 -0.324352 0.183602 -0.240843 -0.356717 -0.223827 0.021089 0.413990 -0.129095 -0.044337 -0.311817 -0.147587 0.170721 -0.249097 -0.048419 0.026755 0.123922 -0.406954 -0.308250 0.120143 0.107252 -0.324017 -0.025385 0.023900 0.034701 -0.604927 -0.149142 0.193884 -0.047462 0.041493 -0.388968 0.333110 -0.040945 -0.250637 0.334247 0.114638 0.067300 0.215697 -0.325117 -0.275502 0.420982 0.329628 0.212355 -0.135220 0.031105 0.337901 -0.109124 -0.171496 -0.246606 -0.160609 -0.072361 -0.085758 -0.115229 -0.041334 0.006264 0.122691 -0.180325 0.251510 -0.108035 -0.307592 0.022113 0.082976 -0.170212 0.065136 0.361305 0.466003 0.147972 -0.232199 0.387814 0.366290 -0.190906 -0.576611 -0.114029 0.503529 0.123393 -0.080693 -0.388674 0.129594 -0.383860 -0.279085 0.001836 -0.419352 0.171157 0.108443 0.432900 -0.205422 -0.040477 -0.015371 -0.051222 0.184703 0.059225 -0.116247 -0.231809 0.218439 -0.095604 0.048839 -0.127748 -0.235799 -0.044039 0.378585 -0.115254 -0.255980 -0.328121 -0.247720 -0.326070 0.306494 -0.287540 0.223237 -0.175572 -0.074067 0.159689 0.003920 0.005661 0.011346 0.372033 0.198528 0.240710 0.068496 -0.097849 0.319271 0.209233 0.153652 0.458004 0.035068 -0.165631 0.077905 -0.113262 -0.094196 0.163128 0.197748 -0.348330 0.047525 -0.314792 0.430386 0.365674 -0.414456 -0.039599 0.017233 -0.009353 0.188191 0.240780 0.320040 -0.349208 -0.345344 -0.132796 -0.266938 -0.010462 -0.204320 -0.002377 0.244773 -0.172493 0.250865 -0.235739 0.028505 -0.082963 -0.613467 0.212420 0.026714 -0.034793 0.032493 -0.130770 0.029447 0.167785 0.238175 0.641917 0.202327 -0.263523 -0.233542 -0.038229 -0.351095 -0.263785 0.361349 0.004039 0.010343
Refinery -0.017275 0.072438 0.017145 0.116536 -0.370202 0.046519 1.013445 0.419747 -0.282298 0.124878 -0.017983 -0.069819 -0.518701 -0.026862 0.468376 -0.148980 0.034104 -0.085070 -0.606440 0.415012 0.334875 0.053499 0.189630 0.205053 0.324471 0.737002 -0.055630 -0.126820 -0.411081 0.242873 0.030401 0.184322 -0.091308 -0.008932 -0.411520 -0.052113 -0.201796 -0.025155 0.076345 0.037495 -0.180123 -0.276888 0.153332 -0.047383 0.241305 -0.518117 -0.348315 -0.076761 0.476838 0.203003 0.039397 0.317851 0.040705 -0.484227 -0.240842 0.188315 0.042643 -0.237154 0.146537 0.052234 0.161889 -0.132382 0.373266 0.263622 -0.426454 0.025264 -0.055356 -0.170196 0.028522 -0.158157 0.150659 0.126964 -0.280618 -0.306233 -0.035893 -0.423216 0.304588 -0.180266 -0.017661 -0.267248 0.705095 0.213909 0.119717 -0.212036 0.134682 -0.655857 0.080166 -0.130057 -0.628345 -0.158405 -0.123582 0.258616 -0.136269 0.195372 0.069644 0.097542 0.001681 0.332206 -0.009961 -0.335527 0.107711 -0.005392 -0.184065 0.123598 0.263253 -0.330093 -0.236406 0.068442 0.059915 -0.043233 -0.220128 -0.024703 -0.125772 -0.092441 0.132341 -0.180482 0.496337 0.295131 -0.119040 -0.042968 0.008322 0.301775 -0.086763 -0.005394 -0.379589 0.096994 0.341150 -0.421218 0.118847 -0.190492 -0.394971 -0.131327 0.099351 0.580057 -0.126831 -0.124497 -0.132040 -0.162715 0.206110 -0.240055 0.058897 -0.003488 0.126583 -0.514610 -0.299390 0.186104 0.229593 -0.335084 0.046310 0.108154 0.073980 -0.789069 -0.296255 0.244393 -0.072949 0.017848 -0.408903 0.273900 -0.090153 -0.211987 0.306631 0.102823 0.091856 0.342798 -0.429842 -0.308494 0.501886 0.327609 0.223119 -0.297483 -0.080344 0.348838 -0.130087 -0.140406 -0.299592 -0.257702 -0.051031 -0.154982 -0.041423 0.061890 0.186167 0.107634 -0.134546 0.095993 -0.113637 -0.397868 0.067015 0.073211 -0.241624 0.023365 0.348235 0.333665 0.087461 -0.168748 0.304011 0.421489 -0.195614 -0.578116 -0.115638 0.560472 0.085233 -0.146566 -0.340811 0.237566 -0.472423 -0.190172 -0.112325 -0.357235 0.249071 0.152852 0.307268 -0.127477 -0.131035 0.046679 -0.021077 0.063726 0.063321 -0.029377 -0.330971 0.211104 -0.041372 0.099407 -0.056806 -0.255345 -0.098716 0.433990 -0.059256 -0.180497 -0.364211 -0.297429 -0.376433 0.316780 -0.248944 0.328327 -0.122314 -0.082364 0.185077 0.085338 0.049495 0.035032 0.409863 0.307140 0.269843 0.145635 -0.192606 0.337761 0.138886 0.205383 0.436730 0.101227 -0.180468 0.202289 -0.003831 -0.260045 0.068399 0.146452 -0.383637 0.098583 -0.306862 0.534440 0.420174 -0.481239 -0.109871 0.094543 -0.011103 0.093379 0.096945 0.297597 -0.352828 -0.370534 -0.109271 -0.219790 0.051237 -0.273871 0.070125 0.256891 -0.282742 0.243243 -0.136730 -0.008638 -0.059053 -0.580965 0.217078 0.097623 -0.065238 -0.074555 -0.160499 -0.027598 0.156998 0.229415 0.665286 0.221473 -0.314195 -0.285049 0.059896 -0.308625 -0.158216 0.299053 0.049350 0.124167
CommandCenter 0.040806 0.113762 0.021295 0.173420 -0.455394 0.052105 0.896041 0.375271 -0.213429 0.091531 0.010780 -0.003653 -0.523147 -0.040817 0.383203 -0.307048 0.043050 -0.075056 -0.597874 0.397673 0.347417 0.004556 0.120457 0.134296 0.210358 0.667701 -0.034610 -0.073421 -0.388347 0.221634 0.015636 0.229184 0.022567 -0.045675 -0.419354 0.016948 -0.241342 0.019692 0.096877 0.005419 -0.151210 -0.309784 0.188522 -0.031306 0.280697 -0.564537 -0.347258 -0.084891 0.515605 0.238943 0.035916 0.286600 0.023295 -0.523567 -0.287205 0.273254 0.078206 -0.364476 0.025406 0.013693 0.146952 -0.048204 0.361116 0.218611 -0.445967 0.087327 -0.125073 -0.222615 0.094452 -0.224625 0.151734 0.102869 -0.218957 -0.284124 -0.012418 -0.421295 0.320316 -0.167710 0.021703 -0.140282 0.708970 0.222536 0.107254 -0.275238 0.139526 -0.739354 0.022671 -0.140481 -0.539877 -0.068456 -0.146876 0.200830 -0.146489 0.286665 0.046676 0.150867 -0.006165 0.312332 0.030667 -0.297026 0.155895 -0.012470 -0.226907 0.052630 0.152859 -0.367159 -0.132120 0.048197 0.037279 -0.071604 -0.144589 -0.062983 -0.087133 -0.082276 0.050861 -0.116040 0.414101 0.299924 -0.162690 -0.063203 0.033538 0.402855 -0.011848 -0.069182 -0.396941 0.136834 0.328128 -0.460044 0.049528 -0.118503 -0.387289 -0.023114 0.133831 0.648871 -0.094770 -0.157848 0.013764 -0.154699 0.229382 -0.213264 0.131754 -0.028389 0.123339 -0.524563 -0.245753 0.216872 0.313611 -0.316371 0.112532 0.157088 0.126965 -0.878443 -0.382894 0.265243 -0.076135 -0.004655 -0.421405 0.216575 -0.141422 -0.174321 0.280242 0.092778 0.100163 0.399151 -0.510898 -0.337558 0.537887 0.325013 0.225472 -0.388120 -0.136812 0.325603 -0.122678 -0.147228 -0.307673 -0.320384 -0.037201 -0.185242 -0.024278 0.134172 0.297203 0.085098 -0.103136 -0.007188 -0.134054 -0.448674 0.113960 0.068778 -0.301226 -0.020746 0.333165 0.228129 0.033728 -0.112976 0.234644 0.430766 -0.184830 -0.544802 -0.129361 0.561089 0.064529 -0.175035 -0.295335 0.341513 -0.517826 -0.107418 -0.178330 -0.286459 0.302566 0.171091 0.220852 -0.088067 -0.199546 0.071689 -0.023966 -0.045641 0.076369 0.028410 -0.361116 0.186022 -0.022653 0.133303 -0.033686 -0.248566 -0.140135 0.437594 -0.029573 -0.108167 -0.378596 -0.311886 -0.385346 0.315749 -0.226066 0.376719 -0.076791 -0.064845 0.197349 0.138216 0.080010 0.045155 0.413200 0.355134 0.267270 0.197435 -0.229232 0.327448 0.068734 0.234293 0.384076 0.132026 -0.175845 0.292492 0.062528 -0.359519 -0.021504 0.083915 -0.405010 0.142867 -0.282523 0.586886 0.431621 -0.482415 -0.161638 0.137167 -0.034968 0.021660 -0.030466 0.251112 -0.336025 -0.345474 -0.076619 -0.172610 0.084794 -0.308860 0.133544 0.257729 -0.342161 0.225749 -0.046862 -0.038396 -0.040785 -0.503179 0.212262 0.138923 -0.089095 -0.137185 -0.175589 -0.069137 0.135420 0.210089 0.638693 0.211531 -0.323602 -0.326608 0.126189 -0.261621 -0.099379 0.238668 0.085097 0.201157
Overlord -0.210092 -0.361111 -0.394772 0.658647 0.098986 -0.100514 -0.549978 -0.265541 0.213662 0.002919 0.215552 0.152610 -0.394593 0.507246 -0.137333 -0.029657 0.251520 -0.144851 0.168259 0.095565 0.531223 0.618118 0.104063 -0.083636 0.142159 -0.054331 0.072951 0.447180 -0.335254 -0.082288 -0.168606 0.228565 -0.341038 0.016979 -0.134075 0.079207 -0.218032 0.483007 0.154322 -0.108599 -0.275657 -0.225164 -0.176858 0.055402 0.354863 0.310540 -0.000249 -0.318176 -0.109527 -0.301824 -0.308353 0.011809 -0.142862 0.078514 0.484673 0.249998 -0.102058 -0.327331 -0.081679 0.067583 0.041223 -0.142845 -0.049503 -0.125908 -0.283127 -0.165477 -0.240093 -0.079143 -0.120972 -0.007962 -0.021781 0.685750 0.007172 -0.203603 -0.549905 -0.285077 0.080199 0.479552 0.175376 0.796358 0.456267 -0.259327 -0.417299 0.018087 -0.396030 -0.349776 0.269138 -0.077747 0.001509 -0.426860 0.381501 -0.518985 -0.156716 0.029151 -0.076080 0.057272 -0.164774 -0.269109 -0.031583 0.512205 0.652501 0.340204 0.406132 0.157186 -0.438770 -0.364133 0.421550 0.362080 -0.032733 -0.341561 0.015590 -0.320849 -0.020496 -0.121350 -0.284086 0.411148 -0.363311 0.358890 0.027136 -0.507255 0.334177 0.028746 -0.359544 -0.084392 0.448935 0.105531 0.271272 -0.308972 -0.348375 0.478290 -0.135249 0.105640 -0.161666 0.203644 0.456154 0.330015 0.245733 0.007430 0.097602 -0.255568 -0.174769 0.146656 0.188422 0.349003 0.286539 -0.103486 -0.007528 0.170871 -0.004740 -0.071150 0.666820 -0.310061 -0.024285 0.072553 0.132978 0.224721 -0.283923 0.106505 -0.069031 -0.103765 0.008135 -0.245024 0.074451 0.113454 -0.250548 -0.147586 0.149823 0.290371 0.463861 -0.218249 0.165467 -0.343815 -0.044357 -0.586106 0.236312 0.207154 0.200451 0.152006 -0.435046 0.204459 0.043127 0.174988 -0.143828 -0.207368 0.099263 -0.067896 0.360270 -0.146197 -0.075445 -0.214028 -0.238512 0.180868 0.303272 0.314070 0.372833 -0.097661 0.315053 -0.062644 -0.533164 -0.440813 0.022465 -0.240647 -0.114455 0.357307 0.021745 0.172637 0.016095 -0.134123 0.090595 -0.143464 0.375973 -0.085148 0.326970 -0.084520 -0.392934 0.033186 0.083932 -0.109051 0.026496 -0.384372 -0.363062 0.007667 -0.012836 -0.122077 -0.292210 -0.191996 -0.046463 0.150887 -0.551017 -0.615157 0.095238 0.262841 -0.263902 -0.151147 -0.554867 0.184249 -0.088438 0.153008 0.363487 -0.213916 0.399067 0.061421 0.282088 0.335541 -0.267284 0.516133 0.256082 0.264000 -0.062809 -0.218922 -0.117837 0.330201 0.056622 0.021442 -0.242139 -0.411576 -0.443460 0.150142 -0.023283 0.463050 0.065722 0.485609 -0.156433 0.053881 -0.383546 -0.070973 -0.147003 -0.042583 -0.365257 0.474285 -0.130692 -0.240936 0.183047 -0.179497 -0.010675 0.201587 0.183005 0.126001 0.429083 -0.245548 0.007329 0.421139 0.304513 0.309302 -0.474576 0.087960 -0.402554 -0.091325 0.182244 0.366810 0.402964 -0.042472 -0.202901 -0.363022 0.310618 0.047070 -0.328018 0.572957 0.135666 -0.152860
Hatchery -0.206920 -0.358816 -0.394706 0.634171 0.105876 -0.074230 -0.505429 -0.236966 0.217789 -0.024082 0.171756 0.110031 -0.360636 0.494922 -0.143506 0.004477 0.243664 -0.120324 0.156808 0.108064 0.533991 0.608168 0.140236 -0.093743 0.177150 -0.045584 0.074053 0.441210 -0.362338 -0.050015 -0.158615 0.254623 -0.341688 0.034989 -0.155851 0.065396 -0.201804 0.474153 0.172426 -0.142164 -0.284027 -0.261852 -0.183973 0.085053 0.357876 0.322257 -0.035159 -0.304613 -0.100317 -0.325356 -0.264335 -0.003799 -0.113379 0.056425 0.469287 0.212166 -0.096862 -0.321092 -0.074263 0.064067 0.060198 -0.188369 -0.043894 -0.114213 -0.301701 -0.185846 -0.225049 -0.075615 -0.133139 -0.001912 0.001196 0.665263 -0.016534 -0.213710 -0.548857 -0.264054 0.089142 0.490229 0.168570 0.767094 0.431262 -0.263834 -0.429804 0.005222 -0.369977 -0.307737 0.251164 -0.083407 -0.015754 -0.428762 0.374790 -0.511395 -0.159847 0.004934 -0.095905 0.024737 -0.152802 -0.265065 -0.021085 0.490621 0.659431 0.336995 0.433312 0.161563 -0.471972 -0.358835 0.397198 0.401091 -0.046546 -0.361312 -0.013896 -0.283066 -0.001345 -0.101870 -0.294112 0.417285 -0.363414 0.364889 0.044155 -0.497493 0.317017 0.002754 -0.356971 -0.078914 0.448009 0.101566 0.257653 -0.308134 -0.355028 0.463500 -0.155517 0.069390 -0.163838 0.218768 0.447724 0.304459 0.222976 0.000646 0.065525 -0.260718 -0.173089 0.140671 0.202435 0.348738 0.279965 -0.123317 -0.028917 0.174624 -0.006460 -0.065279 0.672984 -0.277549 -0.027887 0.084973 0.141073 0.215752 -0.266253 0.096632 -0.063429 -0.143137 -0.013128 -0.247069 0.096776 0.135676 -0.251443 -0.168134 0.163576 0.276420 0.473386 -0.210679 0.142812 -0.355341 -0.059944 -0.580567 0.247864 0.199396 0.181352 0.187128 -0.424269 0.204909 0.047347 0.172434 -0.142066 -0.200121 0.088550 -0.058772 0.335493 -0.136931 -0.063898 -0.206602 -0.249272 0.163454 0.293652 0.298357 0.357748 -0.078564 0.307883 -0.058110 -0.546178 -0.405892 0.003001 -0.251188 -0.115222 0.337220 0.049513 0.153297 0.032424 -0.123042 0.088919 -0.165981 0.345210 -0.052679 0.333755 -0.102146 -0.380828 0.061378 0.101945 -0.078713 0.031033 -0.384537 -0.347112 -0.003620 0.026037 -0.145207 -0.286093 -0.193536 -0.070443 0.144571 -0.557512 -0.616587 0.131428 0.238808 -0.226401 -0.171455 -0.559759 0.184534 -0.112644 0.134817 0.339641 -0.184119 0.396319 0.056050 0.262764 0.310106 -0.266756 0.500236 0.231667 0.268194 -0.073603 -0.200546 -0.123556 0.304098 0.044924 0.023039 -0.226083 -0.395006 -0.431038 0.120757 -0.056837 0.433178 0.059220 0.500732 -0.136852 0.076126 -0.366373 -0.069112 -0.132087 -0.049693 -0.339493 0.459775 -0.143812 -0.233693 0.180994 -0.182723 -0.030575 0.194083 0.186490 0.129848 0.415618 -0.242999 -0.008951 0.445898 0.312537 0.303064 -0.462257 0.076955 -0.389926 -0.064687 0.197173 0.375526 0.396538 -0.042200 -0.196527 -0.336672 0.295331 0.059270 -0.276015 0.562197 0.124078 -0.159081
SupplyDepotLowered -0.030928 0.032170 0.007572 0.109242 -0.320930 0.048144 0.992700 0.409362 -0.273791 0.127544 -0.004779 -0.085717 -0.497432 0.010938 0.445187 -0.087614 0.041794 -0.084626 -0.577458 0.396919 0.306008 0.084452 0.194487 0.218345 0.335862 0.721493 -0.057017 -0.136023 -0.397407 0.227125 0.036221 0.136685 -0.125601 0.012335 -0.387773 -0.065959 -0.179832 -0.012976 0.058451 0.028663 -0.183982 -0.247629 0.109764 -0.053722 0.228698 -0.480624 -0.328668 -0.077943 0.436788 0.149905 0.024910 0.304028 0.054768 -0.437524 -0.197787 0.145705 0.023081 -0.186876 0.170381 0.047740 0.157065 -0.145189 0.328059 0.263965 -0.404666 0.011047 -0.030435 -0.136501 -0.010156 -0.132030 0.146670 0.155311 -0.283129 -0.325763 -0.051857 -0.409964 0.290170 -0.179398 -0.025890 -0.297992 0.682972 0.206228 0.114556 -0.164343 0.101631 -0.592134 0.107473 -0.121519 -0.621641 -0.186858 -0.103659 0.254750 -0.131472 0.134331 0.077810 0.078975 0.004367 0.313545 -0.031477 -0.336544 0.088651 0.009454 -0.150398 0.151056 0.290663 -0.314609 -0.247545 0.087269 0.068983 -0.028219 -0.247230 0.002122 -0.126141 -0.081451 0.150454 -0.203550 0.490186 0.270607 -0.102688 -0.041289 0.009333 0.247415 -0.121294 0.016689 -0.342578 0.078943 0.326537 -0.376013 0.136574 -0.210466 -0.375537 -0.162306 0.071006 0.514852 -0.125254 -0.100745 -0.184150 -0.149438 0.180903 -0.235956 0.031898 0.006426 0.125722 -0.476673 -0.294964 0.169114 0.185206 -0.321130 0.024683 0.080344 0.052729 -0.713158 -0.248996 0.227347 -0.067092 0.023274 -0.386884 0.291297 -0.059595 -0.213857 0.311116 0.104310 0.085177 0.302822 -0.389051 -0.289396 0.470757 0.330516 0.218410 -0.234965 -0.046619 0.342289 -0.120017 -0.136757 -0.282826 -0.230192 -0.062934 -0.125801 -0.058543 0.019757 0.130321 0.115688 -0.147847 0.149049 -0.114097 -0.361508 0.046348 0.082176 -0.209862 0.043474 0.354608 0.376572 0.102957 -0.198374 0.324717 0.403971 -0.198260 -0.591332 -0.108396 0.552208 0.099561 -0.126998 -0.355068 0.192676 -0.437099 -0.233583 -0.076905 -0.377109 0.215232 0.133111 0.339007 -0.146465 -0.111582 0.023379 -0.029281 0.114994 0.067791 -0.062147 -0.303003 0.210732 -0.051383 0.088361 -0.079692 -0.247857 -0.074227 0.411143 -0.082889 -0.207230 -0.347349 -0.272215 -0.357726 0.309967 -0.255844 0.287263 -0.132366 -0.080305 0.180347 0.058043 0.024031 0.036116 0.388209 0.269023 0.250810 0.115688 -0.162648 0.321644 0.160591 0.190132 0.435885 0.085663 -0.179045 0.154671 -0.035550 -0.197983 0.109865 0.164351 -0.359641 0.075364 -0.304745 0.488307 0.400900 -0.457781 -0.068212 0.067798 0.001946 0.120933 0.148600 0.305160 -0.336812 -0.372366 -0.108508 -0.231059 0.030861 -0.243897 0.039024 0.253218 -0.256650 0.232073 -0.183222 0.009070 -0.072891 -0.586231 0.208850 0.068074 -0.039509 -0.038384 -0.135756 -0.000563 0.169772 0.217851 0.638008 0.214795 -0.287354 -0.251017 0.021006 -0.309322 -0.179806 0.310702 0.019498 0.096760
Zergling -0.175927 -0.388992 -0.376064 0.726041 0.110233 -0.168792 -0.573187 -0.284210 0.202922 0.064293 0.291268 0.231728 -0.449893 0.505765 -0.131512 -0.099540 0.254668 -0.205168 0.178233 0.057272 0.456967 0.604075 0.033342 -0.011010 0.045272 -0.033985 0.032183 0.410029 -0.226233 -0.131386 -0.186577 0.123848 -0.361810 -0.040167 -0.099107 0.126986 -0.194313 0.585746 0.057971 -0.050752 -0.252469 -0.089965 -0.173160 0.007960 0.303069 0.286495 0.096614 -0.333892 -0.174207 -0.234941 -0.437508 0.027228 -0.144622 0.163218 0.517173 0.276757 -0.084244 -0.318355 -0.145679 0.107101 -0.024659 -0.059164 -0.112047 -0.146591 -0.219407 -0.110282 -0.262182 -0.047869 -0.164425 -0.016535 -0.034436 0.748887 0.146667 -0.193850 -0.547441 -0.371338 0.078403 0.432705 0.185257 0.898887 0.465703 -0.214290 -0.338807 0.054188 -0.504585 -0.432239 0.297277 -0.045629 0.082723 -0.406977 0.393866 -0.528511 -0.138682 0.045322 -0.030639 0.108235 -0.233052 -0.292879 -0.044873 0.583946 0.649304 0.348788 0.262489 0.123655 -0.337723 -0.308599 0.464782 0.234306 -0.004659 -0.278036 0.064651 -0.388031 -0.099510 -0.167358 -0.265713 0.376628 -0.329530 0.366700 0.026783 -0.448517 0.347998 0.080547 -0.309527 -0.042609 0.426135 0.096849 0.238682 -0.327355 -0.339051 0.494967 -0.078017 0.194594 -0.125567 0.089827 0.448842 0.347771 0.287148 -0.006970 0.155692 -0.203836 -0.205905 0.198559 0.102529 0.412175 0.335179 -0.087924 0.087890 0.128473 -0.000261 -0.140042 0.677913 -0.353225 0.005171 0.030606 0.108084 0.248768 -0.411107 0.132260 -0.134630 0.001150 0.072330 -0.200538 0.001881 0.031435 -0.201802 -0.050150 0.107863 0.278125 0.346908 -0.236809 0.265712 -0.337273 -0.019819 -0.561372 0.194100 0.231625 0.192384 0.084717 -0.434521 0.146009 -0.016639 0.217094 -0.149787 -0.200510 0.170548 -0.066632 0.416473 -0.171174 -0.090500 -0.196369 -0.236053 0.204813 0.219150 0.367877 0.324133 -0.128143 0.336587 0.020370 -0.472858 -0.611050 0.020665 -0.183000 -0.068702 0.371515 0.016555 0.195658 -0.029640 -0.141236 0.075932 -0.109596 0.406975 -0.147735 0.301779 0.018828 -0.397756 -0.034960 0.016210 -0.164952 0.056441 -0.359945 -0.368859 0.048672 -0.119729 0.021327 -0.259971 -0.242020 -0.002230 0.185541 -0.449647 -0.524381 0.052025 0.281002 -0.307786 -0.110756 -0.513117 0.171215 -0.048045 0.188517 0.472091 -0.328935 0.349249 0.071879 0.304200 0.400642 -0.164612 0.501592 0.316556 0.223675 -0.092907 -0.211939 -0.076330 0.329368 0.098105 0.067715 -0.249950 -0.403347 -0.443310 0.200252 0.060471 0.422308 0.035659 0.449137 -0.201200 -0.041319 -0.431304 -0.149314 -0.119233 -0.073146 -0.394786 0.489211 -0.086991 -0.202387 0.157101 -0.172142 0.058193 0.174039 0.159328 0.105142 0.485921 -0.252515 0.079110 0.376088 0.230616 0.350055 -0.493772 0.127725 -0.415049 -0.098124 0.125312 0.293748 0.261169 -0.025621 -0.166656 -0.363493 0.290902 0.072031 -0.421659 0.530852 0.160630 -0.141808
Drone -0.221260 -0.369554 -0.422963 0.665096 0.122446 -0.104353 -0.558254 -0.249118 0.224686 -0.000877 0.189598 0.138494 -0.377738 0.500381 -0.136906 -0.007068 0.248740 -0.129963 0.187242 0.096415 0.563802 0.631981 0.130128 -0.096593 0.155248 -0.075123 0.067241 0.466806 -0.366991 -0.073559 -0.179723 0.259192 -0.368865 0.018634 -0.139202 0.074581 -0.222447 0.492552 0.171222 -0.112515 -0.296299 -0.264136 -0.187776 0.062060 0.359410 0.351564 -0.005938 -0.321863 -0.128804 -0.325026 -0.294079 0.011321 -0.140483 0.079102 0.519232 0.250482 -0.113573 -0.326539 -0.069925 0.073502 0.039171 -0.177608 -0.034583 -0.122342 -0.293364 -0.187381 -0.237796 -0.075749 -0.129858 -0.005143 -0.011599 0.706396 -0.010062 -0.209252 -0.572671 -0.286755 0.084422 0.507447 0.174239 0.820414 0.458537 -0.279983 -0.435236 0.011957 -0.395416 -0.347292 0.276481 -0.086520 -0.001283 -0.463981 0.391892 -0.544268 -0.157750 0.015686 -0.092093 0.039249 -0.164285 -0.266723 -0.025111 0.539918 0.691828 0.354004 0.445517 0.176861 -0.463246 -0.374696 0.428583 0.403627 -0.047788 -0.380561 0.005293 -0.327516 -0.015767 -0.126884 -0.292650 0.426627 -0.384850 0.375004 0.049824 -0.532821 0.340051 0.018426 -0.382423 -0.075248 0.470428 0.114063 0.274695 -0.317456 -0.381694 0.493871 -0.138691 0.094037 -0.172948 0.204054 0.472820 0.336100 0.255136 0.009304 0.076852 -0.270011 -0.187376 0.145797 0.196192 0.379184 0.287751 -0.120188 -0.027179 0.196051 -0.020663 -0.071384 0.709290 -0.302990 -0.030945 0.077836 0.144861 0.238763 -0.286857 0.120012 -0.073670 -0.113046 0.008808 -0.250361 0.084058 0.118240 -0.259739 -0.157792 0.154806 0.304452 0.494805 -0.224795 0.169504 -0.368229 -0.055606 -0.619812 0.256029 0.230048 0.205211 0.186217 -0.460231 0.205637 0.047503 0.197173 -0.144546 -0.204781 0.105452 -0.076551 0.363150 -0.150058 -0.059039 -0.228190 -0.262205 0.194002 0.316450 0.326036 0.385431 -0.089301 0.335500 -0.054743 -0.574183 -0.470033 0.016821 -0.251590 -0.107110 0.353550 0.041462 0.168568 0.029319 -0.153953 0.098666 -0.155898 0.395245 -0.088667 0.361979 -0.084564 -0.413600 0.047476 0.093429 -0.109753 0.017991 -0.416665 -0.361971 -0.003155 0.006411 -0.145509 -0.297574 -0.217263 -0.068273 0.161807 -0.591900 -0.655612 0.127531 0.271722 -0.263975 -0.169245 -0.601415 0.200759 -0.099973 0.141282 0.367826 -0.211638 0.416304 0.054409 0.275035 0.350297 -0.283749 0.539306 0.264398 0.276797 -0.084834 -0.231805 -0.127490 0.324474 0.051369 0.035007 -0.240697 -0.420935 -0.457433 0.144275 -0.036787 0.472691 0.069719 0.522350 -0.143690 0.054155 -0.398444 -0.072189 -0.135610 -0.039526 -0.380808 0.486466 -0.145309 -0.261364 0.188618 -0.191432 -0.030072 0.212730 0.203760 0.143159 0.427215 -0.256788 -0.005927 0.438721 0.325636 0.330562 -0.500060 0.090521 -0.425750 -0.085208 0.187425 0.389005 0.427951 -0.042863 -0.211391 -0.375486 0.322187 0.056322 -0.332987 0.609614 0.136134 -0.164498
Factory -0.038928 0.025059 0.010169 0.094048 -0.335500 0.064441 1.079973 0.445026 -0.293943 0.129905 -0.007908 -0.107470 -0.512875 0.017083 0.470842 -0.077671 0.046351 -0.082022 -0.619980 0.425147 0.313544 0.085973 0.215054 0.245772 0.364758 0.773482 -0.057786 -0.154992 -0.424163 0.231995 0.051267 0.126516 -0.130752 0.024769 -0.400060 -0.078866 -0.182903 -0.020526 0.049729 0.012114 -0.180305 -0.251575 0.105788 -0.049898 0.230846 -0.489022 -0.348514 -0.073839 0.456021 0.146180 0.036722 0.312464 0.062540 -0.443471 -0.208777 0.136554 0.020167 -0.178444 0.171436 0.038090 0.164047 -0.147396 0.331177 0.274744 -0.413797 0.016272 -0.021136 -0.135263 -0.014633 -0.128837 0.155992 0.161852 -0.278957 -0.345545 -0.062129 -0.419838 0.309375 -0.188813 -0.024974 -0.324811 0.703864 0.209326 0.118821 -0.166653 0.103447 -0.603062 0.107228 -0.128214 -0.652326 -0.193237 -0.109573 0.275195 -0.144177 0.116741 0.081845 0.080978 0.018403 0.332439 -0.034485 -0.370631 0.079501 0.009785 -0.147467 0.158187 0.303632 -0.331461 -0.269409 0.098901 0.079491 -0.027273 -0.272359 0.016546 -0.131917 -0.078633 0.158942 -0.227364 0.516375 0.297454 -0.108699 -0.030879 0.009131 0.252277 -0.148474 0.010960 -0.351863 0.066470 0.342787 -0.386582 0.156865 -0.222815 -0.389325 -0.179105 0.069926 0.519757 -0.137420 -0.092837 -0.217614 -0.156375 0.187062 -0.241499 0.021355 0.001491 0.136565 -0.491996 -0.299690 0.170477 0.170988 -0.332531 0.026917 0.081266 0.041226 -0.706660 -0.249445 0.233461 -0.075221 0.024043 -0.382753 0.296299 -0.059160 -0.222971 0.317585 0.096866 0.091025 0.301980 -0.386658 -0.299544 0.470383 0.326954 0.218076 -0.212233 -0.052911 0.340401 -0.123311 -0.136836 -0.276189 -0.227541 -0.060875 -0.118245 -0.056600 0.016945 0.118445 0.107038 -0.139466 0.153962 -0.121459 -0.360686 0.038873 0.088119 -0.213110 0.055181 0.361580 0.373170 0.113584 -0.204599 0.331095 0.399677 -0.202687 -0.599355 -0.100937 0.581647 0.108746 -0.109996 -0.363140 0.187384 -0.441439 -0.249348 -0.060537 -0.380781 0.213534 0.131048 0.348238 -0.146762 -0.121015 0.015704 -0.034287 0.119351 0.073884 -0.055052 -0.291202 0.213542 -0.051154 0.077536 -0.073508 -0.250495 -0.058685 0.416707 -0.082414 -0.219896 -0.337859 -0.256793 -0.362260 0.310195 -0.257124 0.280683 -0.122676 -0.088981 0.182248 0.058129 0.018063 0.052721 0.377988 0.254165 0.259738 0.100329 -0.167461 0.315404 0.142184 0.181696 0.447552 0.086230 -0.175090 0.151846 -0.055163 -0.203952 0.112631 0.169185 -0.365913 0.068090 -0.321249 0.489934 0.401476 -0.456745 -0.065970 0.068995 0.005574 0.141060 0.149881 0.310232 -0.339185 -0.380818 -0.119132 -0.239848 0.026300 -0.236001 0.039307 0.255271 -0.249016 0.237951 -0.195337 0.013123 -0.083766 -0.596980 0.220610 0.053097 -0.033214 -0.044508 -0.117908 -0.000657 0.154858 0.228479 0.661130 0.218372 -0.296885 -0.247112 0.014653 -0.320711 -0.182364 0.309323 0.013461 0.091683
Larva -0.227646 -0.396705 -0.409471 0.726482 0.124168 -0.162201 -0.545738 -0.262944 0.194082 0.053819 0.232122 0.181279 -0.440978 0.502536 -0.092529 -0.038291 0.266183 -0.187472 0.179283 0.083136 0.535151 0.631368 0.099812 -0.040848 0.125446 -0.047330 0.044882 0.451450 -0.315193 -0.102851 -0.187414 0.212453 -0.393266 -0.021801 -0.115924 0.087801 -0.216652 0.539972 0.108820 -0.051582 -0.298324 -0.179678 -0.165135 0.020280 0.329413 0.323592 0.063688 -0.337888 -0.165553 -0.267440 -0.393019 0.031932 -0.150840 0.113008 0.535707 0.264693 -0.116278 -0.320261 -0.066382 0.114673 0.022064 -0.140519 -0.038130 -0.123079 -0.257325 -0.173671 -0.255373 -0.063137 -0.157696 0.003236 -0.030313 0.734428 0.032095 -0.189924 -0.556404 -0.344379 0.067586 0.466059 0.181866 0.851691 0.471730 -0.252942 -0.372570 0.040704 -0.447064 -0.397530 0.316482 -0.063811 0.008756 -0.460993 0.393674 -0.524668 -0.131387 0.048968 -0.071028 0.062853 -0.204191 -0.262675 -0.038013 0.577886 0.674424 0.351274 0.349093 0.158430 -0.373583 -0.316808 0.414043 0.311220 -0.024369 -0.345289 0.036697 -0.369970 -0.073858 -0.158251 -0.243752 0.399206 -0.343784 0.353901 0.055553 -0.497835 0.328702 0.031701 -0.327355 -0.051220 0.447434 0.118582 0.266901 -0.332725 -0.368693 0.458578 -0.101586 0.141741 -0.157204 0.154467 0.464487 0.323381 0.265963 0.004506 0.115448 -0.247615 -0.211547 0.175206 0.160993 0.384059 0.280790 -0.098834 0.044480 0.148581 -0.022097 -0.110541 0.706783 -0.335251 -0.018661 0.051334 0.117289 0.270179 -0.371863 0.153371 -0.077426 -0.045991 0.052523 -0.221939 0.035529 0.086078 -0.222871 -0.088711 0.149475 0.312932 0.429230 -0.237019 0.232001 -0.314791 -0.050261 -0.592515 0.209028 0.240202 0.198439 0.127531 -0.429780 0.171434 -0.000876 0.218682 -0.169960 -0.177951 0.142756 -0.073015 0.390260 -0.170432 -0.064417 -0.184738 -0.226779 0.247004 0.275133 0.322022 0.378351 -0.086253 0.335197 -0.056017 -0.541261 -0.544083 0.020097 -0.244325 -0.099934 0.337293 0.029666 0.160084 -0.002006 -0.174112 0.089729 -0.119320 0.415055 -0.115989 0.349548 -0.035802 -0.393079 0.039178 0.053276 -0.160609 0.015282 -0.363116 -0.359477 0.043176 -0.057704 -0.087911 -0.268962 -0.217733 -0.049728 0.160282 -0.529062 -0.598923 0.099728 0.292848 -0.295378 -0.141764 -0.573842 0.174066 -0.065562 0.148233 0.410710 -0.261826 0.387062 0.075927 0.283496 0.370992 -0.236696 0.547231 0.308300 0.254788 -0.068196 -0.212432 -0.108800 0.322768 0.082212 0.064557 -0.200056 -0.389898 -0.449801 0.168514 0.002831 0.448253 0.075450 0.462076 -0.148636 0.011261 -0.411137 -0.122798 -0.081192 -0.046335 -0.404826 0.466034 -0.137629 -0.236116 0.166756 -0.186696 0.001376 0.204379 0.164473 0.120281 0.432006 -0.249350 0.032586 0.374428 0.280543 0.351471 -0.491948 0.117612 -0.424913 -0.075305 0.198503 0.343089 0.350613 -0.023482 -0.176217 -0.356233 0.302666 0.053942 -0.388952 0.581347 0.136567 -0.158736
Egg -0.215170 -0.388251 -0.401976 0.700554 0.116696 -0.136906 -0.540995 -0.264456 0.201094 0.037105 0.212859 0.162412 -0.415111 0.495107 -0.107700 -0.032689 0.263997 -0.174439 0.173950 0.081805 0.527029 0.630561 0.107610 -0.048507 0.135732 -0.034954 0.044226 0.437041 -0.324477 -0.084975 -0.171290 0.206449 -0.380089 0.001242 -0.136122 0.082309 -0.202683 0.536233 0.121796 -0.072041 -0.282926 -0.187322 -0.172255 0.034569 0.326183 0.316526 0.027660 -0.335353 -0.142757 -0.283940 -0.354235 0.022248 -0.148651 0.095778 0.517606 0.250147 -0.111732 -0.322514 -0.087927 0.107810 0.024297 -0.139099 -0.050710 -0.122950 -0.270797 -0.172404 -0.247410 -0.062492 -0.159903 0.002306 -0.020580 0.725199 0.029364 -0.208931 -0.558641 -0.330751 0.080828 0.466759 0.170011 0.830873 0.477144 -0.248562 -0.389299 0.024011 -0.436141 -0.380759 0.298842 -0.064051 -0.005314 -0.453923 0.392150 -0.522757 -0.143598 0.033007 -0.070564 0.053221 -0.196528 -0.265738 -0.031596 0.542732 0.669012 0.351678 0.365624 0.160584 -0.399209 -0.339578 0.416862 0.334818 -0.019488 -0.326903 0.011887 -0.344630 -0.054673 -0.140726 -0.269914 0.395673 -0.339601 0.364754 0.050969 -0.487347 0.335649 0.030809 -0.342606 -0.049077 0.448795 0.104642 0.265973 -0.333982 -0.345884 0.465329 -0.118291 0.128143 -0.149619 0.159520 0.452403 0.331564 0.236997 -0.000178 0.106809 -0.249599 -0.191894 0.163131 0.162033 0.372258 0.274942 -0.108896 0.032363 0.152309 -0.010525 -0.106384 0.683115 -0.325715 -0.012315 0.063972 0.131284 0.246613 -0.335148 0.136331 -0.078415 -0.073995 0.034904 -0.232750 0.050164 0.094582 -0.235459 -0.103027 0.149456 0.300174 0.439086 -0.232132 0.228090 -0.326402 -0.039198 -0.594685 0.215822 0.231215 0.189523 0.146076 -0.450924 0.167229 0.011660 0.210812 -0.160693 -0.198068 0.138016 -0.074368 0.387370 -0.166701 -0.069128 -0.209982 -0.245450 0.226151 0.273149 0.334991 0.377361 -0.091118 0.342437 -0.038897 -0.542078 -0.528985 0.026718 -0.236112 -0.104897 0.366832 0.024447 0.167920 0.007738 -0.160655 0.091859 -0.141527 0.423077 -0.106720 0.341164 -0.046836 -0.403346 0.020253 0.056995 -0.143813 0.023416 -0.371624 -0.370351 0.029503 -0.054317 -0.077611 -0.283760 -0.213194 -0.048995 0.163990 -0.529972 -0.610926 0.087100 0.284697 -0.297193 -0.142445 -0.576603 0.175461 -0.071869 0.158911 0.414957 -0.267238 0.411307 0.074517 0.311837 0.371942 -0.221649 0.545365 0.315464 0.265383 -0.064197 -0.223237 -0.105880 0.335237 0.056605 0.042489 -0.228827 -0.407940 -0.461987 0.160886 -0.012447 0.464758 0.063744 0.474622 -0.170893 0.010751 -0.404570 -0.097297 -0.097762 -0.040727 -0.396928 0.473966 -0.133065 -0.235429 0.171529 -0.185167 -0.002194 0.193424 0.174417 0.120906 0.435484 -0.251313 0.028759 0.390463 0.289611 0.333702 -0.492148 0.105346 -0.423760 -0.081301 0.182520 0.354958 0.372274 -0.025584 -0.187300 -0.371072 0.302603 0.051387 -0.378380 0.585772 0.147362 -0.160822
MULE -0.068853 -0.012653 0.010237 0.087731 -0.263413 0.043713 1.054848 0.436561 -0.300838 0.139615 0.008257 -0.120480 -0.495821 0.037820 0.480738 0.014022 0.055962 -0.083770 -0.579856 0.405732 0.291932 0.128302 0.228635 0.265692 0.403877 0.762141 -0.081609 -0.155771 -0.389863 0.232780 0.042329 0.093676 -0.191172 0.044919 -0.383300 -0.104560 -0.152203 -0.002942 0.032017 0.029106 -0.193932 -0.224490 0.075088 -0.052308 0.207297 -0.444884 -0.320905 -0.058838 0.395330 0.114450 0.018643 0.304520 0.067203 -0.391956 -0.156601 0.087887 0.006670 -0.112274 0.214405 0.061292 0.151761 -0.177224 0.307320 0.278307 -0.376481 -0.013192 0.016798 -0.098844 -0.050781 -0.096924 0.143993 0.198847 -0.287425 -0.345969 -0.077925 -0.407095 0.299865 -0.191615 -0.041894 -0.366408 0.668197 0.205142 0.126446 -0.128934 0.079950 -0.536382 0.148556 -0.116949 -0.651232 -0.238871 -0.078224 0.275834 -0.137385 0.064286 0.091446 0.062094 0.022774 0.319103 -0.051130 -0.352790 0.072625 0.020543 -0.116606 0.195787 0.350828 -0.291360 -0.300085 0.094209 0.088655 0.001903 -0.297002 0.020327 -0.142364 -0.093730 0.172217 -0.256339 0.539227 0.283039 -0.070898 -0.021915 0.003719 0.193122 -0.183626 0.049662 -0.317562 0.049778 0.324144 -0.346530 0.183649 -0.242651 -0.377633 -0.216514 0.039605 0.444744 -0.136614 -0.049635 -0.295046 -0.155490 0.172230 -0.251020 -0.023578 0.017539 0.122265 -0.438802 -0.312352 0.136930 0.131219 -0.340960 -0.010450 0.041657 0.022341 -0.663670 -0.185717 0.217015 -0.062252 0.033044 -0.400398 0.327494 -0.051820 -0.253101 0.334588 0.116235 0.068404 0.254089 -0.367051 -0.295153 0.445993 0.333029 0.214902 -0.168063 0.007171 0.349867 -0.115236 -0.159652 -0.267653 -0.189598 -0.074689 -0.097348 -0.089468 -0.023862 0.045106 0.113889 -0.168602 0.228658 -0.112526 -0.345470 0.025688 0.097627 -0.193422 0.064921 0.371311 0.447723 0.143968 -0.235709 0.383482 0.407389 -0.210679 -0.611759 -0.115327 0.561373 0.126640 -0.084770 -0.391914 0.152308 -0.419877 -0.274814 -0.020189 -0.420487 0.195699 0.116014 0.423584 -0.203373 -0.070887 -0.011731 -0.044512 0.158942 0.066481 -0.100561 -0.251937 0.224056 -0.098745 0.061185 -0.124647 -0.248001 -0.060260 0.421995 -0.099239 -0.251125 -0.344350 -0.260541 -0.367579 0.319328 -0.302148 0.261542 -0.162068 -0.094402 0.170624 0.028681 0.019928 0.011973 0.414584 0.226770 0.284144 0.095425 -0.107253 0.326315 0.199520 0.176415 0.478094 0.051514 -0.174693 0.118983 -0.097277 -0.145873 0.145070 0.191393 -0.375458 0.058857 -0.329674 0.475453 0.373241 -0.451983 -0.070049 0.023903 0.002001 0.187427 0.208363 0.331041 -0.351633 -0.361894 -0.136539 -0.277061 -0.007602 -0.229275 0.025766 0.253777 -0.190475 0.268183 -0.227453 0.024420 -0.067607 -0.636767 0.232325 0.040121 -0.045675 0.004870 -0.148043 0.014724 0.151071 0.256803 0.688586 0.221163 -0.299145 -0.264758 -0.022105 -0.356788 -0.254400 0.367674 0.034185 0.037315
Queen -0.186646 -0.428359 -0.385567 0.767584 0.123226 -0.197520 -0.612044 -0.305525 0.200018 0.108164 0.328789 0.267919 -0.467334 0.522395 -0.123855 -0.110734 0.247211 -0.225942 0.184773 0.035455 0.441445 0.616874 0.006276 0.016643 0.010614 -0.041345 0.021523 0.396371 -0.192285 -0.154488 -0.204717 0.090043 -0.379226 -0.057812 -0.081559 0.151437 -0.192218 0.619471 0.022019 -0.014324 -0.256981 -0.029391 -0.175708 -0.025707 0.276628 0.290012 0.143277 -0.348837 -0.219944 -0.214107 -0.511401 0.043348 -0.162630 0.213429 0.552971 0.291072 -0.095050 -0.295406 -0.145479 0.124489 -0.032345 -0.028947 -0.113081 -0.148225 -0.188892 -0.109436 -0.265567 -0.043198 -0.186030 -0.011677 -0.044055 0.758022 0.177116 -0.172331 -0.544038 -0.397884 0.061350 0.404307 0.190226 0.921308 0.452863 -0.214346 -0.303240 0.079502 -0.542406 -0.458180 0.329341 -0.037330 0.093366 -0.407178 0.395612 -0.534781 -0.120720 0.054017 -0.028217 0.133295 -0.245741 -0.298846 -0.052578 0.610311 0.633298 0.349628 0.220453 0.122927 -0.285686 -0.266675 0.459930 0.191002 0.007903 -0.257861 0.072584 -0.413382 -0.137235 -0.186748 -0.227891 0.366164 -0.316540 0.349151 0.041695 -0.425546 0.338120 0.083538 -0.292302 -0.036045 0.426262 0.093444 0.228352 -0.323470 -0.326740 0.485540 -0.058699 0.217460 -0.126887 0.048743 0.453929 0.366489 0.274916 -0.004653 0.185083 -0.190063 -0.220558 0.218819 0.082023 0.430895 0.354287 -0.073701 0.117941 0.119351 -0.014136 -0.166479 0.676942 -0.383183 0.024288 0.002331 0.087710 0.261119 -0.461510 0.154095 -0.149847 0.035845 0.096629 -0.181513 -0.031846 -0.004025 -0.183338 -0.009421 0.102254 0.285739 0.319393 -0.236748 0.306770 -0.324061 0.002976 -0.555549 0.184593 0.250048 0.188785 0.050832 -0.426568 0.116753 -0.058580 0.224387 -0.164695 -0.197046 0.189345 -0.065000 0.424617 -0.169330 -0.083633 -0.180321 -0.219833 0.239665 0.213953 0.365753 0.333096 -0.147345 0.333094 0.017464 -0.458137 -0.674702 0.025355 -0.175543 -0.059215 0.370346 0.004924 0.201201 -0.052603 -0.145634 0.074843 -0.103668 0.437930 -0.189557 0.308980 0.035021 -0.409134 -0.033646 -0.003291 -0.206947 0.079240 -0.338086 -0.388179 0.056881 -0.159823 0.057240 -0.256344 -0.239261 0.011581 0.183795 -0.410962 -0.500577 0.042523 0.291751 -0.330646 -0.086995 -0.505160 0.167800 -0.021741 0.199630 0.512655 -0.381305 0.333741 0.073236 0.312203 0.412723 -0.132653 0.516117 0.346305 0.210276 -0.093422 -0.220835 -0.057093 0.329386 0.099740 0.086568 -0.238456 -0.399350 -0.456751 0.213334 0.085444 0.404405 0.026596 0.436472 -0.218311 -0.076172 -0.438041 -0.170494 -0.104282 -0.071243 -0.415772 0.502198 -0.076164 -0.190361 0.141435 -0.169796 0.091514 0.178200 0.158233 0.090696 0.504982 -0.253969 0.125992 0.357270 0.212782 0.361250 -0.487409 0.149817 -0.416532 -0.110438 0.096667 0.282318 0.238406 -0.024161 -0.169579 -0.375669 0.292125 0.064433 -0.501695 0.546713 0.173203 -0.157169
Extractor -0.194958 -0.396932 -0.379755 0.716094 0.118937 -0.167794 -0.552862 -0.271383 0.197445 0.067246 0.281165 0.221143 -0.433988 0.496819 -0.116934 -0.069126 0.247727 -0.190946 0.172631 0.056222 0.465421 0.600805 0.044848 -0.011959 0.062898 -0.035216 0.029985 0.406665 -0.236096 -0.124597 -0.191682 0.138731 -0.368511 -0.031281 -0.097433 0.110947 -0.196412 0.560810 0.062339 -0.049272 -0.265369 -0.095841 -0.171050 0.006401 0.295606 0.288180 0.090543 -0.328897 -0.179911 -0.241816 -0.428000 0.028333 -0.140080 0.154541 0.516548 0.259751 -0.098255 -0.291886 -0.112080 0.110538 -0.009566 -0.076138 -0.087437 -0.138663 -0.213979 -0.121343 -0.250133 -0.051054 -0.162980 -0.011333 -0.030641 0.721380 0.108128 -0.186349 -0.533566 -0.353821 0.079427 0.421814 0.180744 0.848565 0.453499 -0.208802 -0.326140 0.054542 -0.477759 -0.405783 0.306332 -0.046443 0.050411 -0.415342 0.379301 -0.514966 -0.132072 0.044087 -0.038992 0.104449 -0.210485 -0.282407 -0.048603 0.566638 0.627622 0.340792 0.284054 0.137558 -0.323743 -0.285653 0.425698 0.241776 -0.001387 -0.282575 0.049403 -0.379666 -0.098207 -0.162549 -0.246494 0.361846 -0.310748 0.350567 0.034217 -0.448701 0.332439 0.058822 -0.309006 -0.047989 0.418863 0.096567 0.235995 -0.311116 -0.326990 0.474727 -0.096392 0.168333 -0.139627 0.098633 0.451953 0.368217 0.251987 -0.007991 0.162411 -0.217298 -0.218973 0.195834 0.112978 0.413887 0.339172 -0.089048 0.079398 0.118005 -0.009932 -0.145632 0.676812 -0.366607 0.006694 0.032362 0.105805 0.251170 -0.427682 0.148244 -0.135801 -0.018145 0.076795 -0.197643 0.000207 0.030722 -0.216215 -0.069824 0.119548 0.294456 0.362271 -0.223958 0.267773 -0.331000 -0.016565 -0.580117 0.203271 0.234139 0.189163 0.085673 -0.436984 0.140700 -0.034203 0.211030 -0.161277 -0.177906 0.153291 -0.073180 0.399659 -0.152388 -0.087171 -0.196044 -0.217564 0.237376 0.245355 0.343575 0.354154 -0.117392 0.327673 -0.010826 -0.489845 -0.587743 0.034784 -0.184846 -0.096112 0.370296 0.002359 0.184942 -0.020719 -0.151131 0.083013 -0.125911 0.449416 -0.180875 0.316383 -0.009217 -0.417292 -0.018040 0.027140 -0.176813 0.072349 -0.351152 -0.395613 0.038668 -0.125423 -0.007708 -0.268386 -0.217831 -0.006749 0.161285 -0.466835 -0.536372 0.046429 0.285476 -0.313102 -0.099851 -0.523895 0.163192 -0.038735 0.185431 0.464472 -0.329675 0.376639 0.070560 0.316273 0.394290 -0.159758 0.516678 0.316919 0.230266 -0.071878 -0.220176 -0.087740 0.334758 0.072900 0.067533 -0.226966 -0.392313 -0.458056 0.187636 0.035846 0.427031 0.037297 0.434698 -0.209231 -0.046389 -0.413560 -0.117299 -0.109970 -0.051179 -0.400363 0.479706 -0.110322 -0.223711 0.141139 -0.181933 0.063474 0.190530 0.178361 0.123709 0.457353 -0.243678 0.086972 0.339704 0.256398 0.340353 -0.488446 0.125565 -0.425772 -0.098444 0.112876 0.325220 0.328640 -0.017838 -0.197305 -0.388322 0.284997 0.038623 -0.454981 0.560790 0.176650 -0.154558
SpawningPool -0.189451 -0.418670 -0.382875 0.752037 0.103993 -0.164999 -0.550340 -0.265529 0.193903 0.067108 0.306595 0.220723 -0.468142 0.531577 -0.119603 -0.083366 0.250591 -0.201149 0.152928 0.076125 0.472779 0.631351 0.034371 0.002040 0.077104 -0.002019 0.031125 0.412602 -0.238562 -0.125965 -0.192184 0.120676 -0.375164 -0.022772 -0.123994 0.129519 -0.199481 0.598736 0.053695 -0.062653 -0.270896 -0.096840 -0.188447 0.011428 0.316806 0.271961 0.083089 -0.341684 -0.167686 -0.256459 -0.450913 0.026340 -0.136846 0.168205 0.528356 0.269315 -0.089349 -0.311326 -0.133172 0.101430 -0.008707 -0.075628 -0.102829 -0.136691 -0.233622 -0.120462 -0.251784 -0.055195 -0.175341 -0.010427 -0.023155 0.765200 0.132247 -0.207593 -0.558569 -0.386294 0.090681 0.421443 0.190745 0.859646 0.483151 -0.211195 -0.332346 0.053493 -0.513630 -0.441380 0.323504 -0.049346 0.048460 -0.421439 0.396247 -0.516132 -0.159102 0.024550 -0.030919 0.114868 -0.223692 -0.278864 -0.045987 0.560998 0.651659 0.352156 0.267930 0.143673 -0.331443 -0.316551 0.453988 0.246676 -0.001214 -0.274396 0.036332 -0.386452 -0.101758 -0.174046 -0.261814 0.360963 -0.308573 0.392893 0.031828 -0.451355 0.347307 0.081064 -0.321007 -0.043927 0.418463 0.092776 0.249569 -0.333507 -0.327269 0.483434 -0.098606 0.175338 -0.137776 0.101893 0.438028 0.349979 0.252971 -0.012605 0.158583 -0.215485 -0.218907 0.201494 0.111617 0.400948 0.329165 -0.086836 0.073538 0.118298 -0.006402 -0.136979 0.667851 -0.372550 0.009618 0.030565 0.103938 0.241425 -0.424752 0.146396 -0.128325 -0.028459 0.081971 -0.187918 -0.003406 0.042130 -0.212719 -0.067959 0.126186 0.288249 0.359828 -0.232185 0.264228 -0.320517 -0.019669 -0.569410 0.190470 0.232273 0.179711 0.082423 -0.436700 0.135953 -0.033466 0.211842 -0.161528 -0.181166 0.161654 -0.078571 0.402937 -0.156749 -0.091656 -0.186521 -0.214783 0.234966 0.232395 0.341031 0.339520 -0.119053 0.313176 -0.007907 -0.480308 -0.581811 0.023451 -0.189513 -0.080605 0.358975 0.011343 0.184177 -0.022795 -0.146583 0.080917 -0.113517 0.415688 -0.159826 0.311226 -0.004421 -0.395056 -0.009869 0.023307 -0.176769 0.062234 -0.343110 -0.380495 0.047686 -0.110469 -0.002055 -0.266605 -0.216598 -0.009124 0.166095 -0.455118 -0.527533 0.057727 0.276434 -0.307278 -0.103114 -0.516728 0.162882 -0.047864 0.177364 0.460542 -0.321693 0.349890 0.066061 0.303103 0.387741 -0.165139 0.502933 0.308703 0.225921 -0.067199 -0.216540 -0.080745 0.321792 0.076710 0.061568 -0.235160 -0.386619 -0.457754 0.186206 0.035694 0.417602 0.039180 0.427855 -0.200285 -0.042202 -0.420304 -0.123538 -0.109514 -0.058405 -0.402455 0.469958 -0.105417 -0.219712 0.140453 -0.181731 0.060538 0.177931 0.160890 0.116848 0.466393 -0.251691 0.087946 0.350838 0.244621 0.335422 -0.476956 0.134566 -0.418745 -0.098743 0.122277 0.316080 0.306564 -0.012177 -0.183278 -0.372476 0.278433 0.052297 -0.450328 0.550929 0.172225 -0.155462
Starport -0.117510 -0.104081 -0.003151 0.060089 -0.165939 0.057990 1.126446 0.459858 -0.325859 0.153222 0.011477 -0.175127 -0.431851 0.075260 0.485910 0.170115 0.052014 -0.080974 -0.527512 0.371547 0.239519 0.169563 0.266194 0.315386 0.458835 0.746401 -0.087682 -0.190391 -0.375967 0.221025 0.062995 0.010102 -0.278352 0.087980 -0.329771 -0.150925 -0.092583 -0.020725 0.004179 0.032721 -0.205680 -0.170325 0.000816 -0.060387 0.168861 -0.365257 -0.294089 -0.054477 0.322079 0.032239 0.006754 0.296301 0.096052 -0.302539 -0.083456 -0.004382 -0.037326 0.012450 0.291487 0.074448 0.146490 -0.222884 0.255236 0.283339 -0.325351 -0.055297 0.074462 -0.032658 -0.112154 -0.031662 0.139645 0.225852 -0.290712 -0.356493 -0.102698 -0.368991 0.254494 -0.185043 -0.064787 -0.443481 0.604686 0.175768 0.118286 -0.042191 0.036577 -0.409788 0.198271 -0.093563 -0.658308 -0.300712 -0.040465 0.289563 -0.124731 -0.045492 0.109476 0.008135 0.025015 0.284356 -0.093034 -0.360916 0.028062 0.044062 -0.060703 0.249633 0.409877 -0.246037 -0.340807 0.116015 0.109462 0.027234 -0.342520 0.071530 -0.155895 -0.078830 0.222152 -0.298966 0.541566 0.257991 -0.030031 -0.004907 -0.016278 0.078968 -0.249383 0.094279 -0.253118 0.010079 0.302716 -0.266552 0.230697 -0.274486 -0.347683 -0.286431 -0.005026 0.329612 -0.139831 -0.000535 -0.409468 -0.138665 0.129372 -0.241332 -0.083764 0.042999 0.122250 -0.369111 -0.306952 0.091873 0.036459 -0.307479 -0.060315 -0.006014 -0.022711 -0.484780 -0.079740 0.173466 -0.049853 0.042127 -0.343023 0.341629 0.004304 -0.259491 0.322199 0.111397 0.056818 0.165191 -0.260563 -0.250278 0.365871 0.315152 0.196531 -0.037972 0.064698 0.321777 -0.093898 -0.147348 -0.212332 -0.114324 -0.085160 -0.044559 -0.123132 -0.096277 -0.075055 0.121619 -0.190529 0.319706 -0.105414 -0.256528 -0.015439 0.103630 -0.128018 0.092544 0.363046 0.508759 0.182134 -0.278166 0.413380 0.344213 -0.196972 -0.576339 -0.082086 0.511836 0.143981 -0.040696 -0.404287 0.049395 -0.346169 -0.335405 0.053988 -0.440545 0.122045 0.068875 0.481324 -0.234451 -0.014022 -0.048745 -0.060146 0.243937 0.058699 -0.142811 -0.175858 0.216476 -0.121788 0.025448 -0.158069 -0.232814 -0.014620 0.377696 -0.128499 -0.301623 -0.294781 -0.210568 -0.326889 0.295422 -0.307154 0.186496 -0.192725 -0.094394 0.146144 -0.024604 -0.025680 0.007326 0.362521 0.141088 0.251248 0.034921 -0.052715 0.294623 0.241250 0.129083 0.477973 0.015154 -0.164759 0.024482 -0.169839 -0.033370 0.213788 0.234882 -0.320128 0.011715 -0.328858 0.378278 0.320515 -0.395316 -0.010473 -0.020549 0.021939 0.246317 0.305462 0.344645 -0.324840 -0.341898 -0.139777 -0.279457 -0.044980 -0.162278 -0.036279 0.230223 -0.113710 0.242073 -0.294338 0.054511 -0.094180 -0.625283 0.206160 -0.019108 -0.005123 0.071197 -0.092523 0.054773 0.154564 0.242686 0.621300 0.206880 -0.240630 -0.189980 -0.089193 -0.359718 -0.281231 0.373424 -0.016701 -0.029686
BarracksReactor -0.083311 -0.065891 0.001214 0.089172 -0.255782 0.079444 1.150581 0.467975 -0.314764 0.136450 0.022566 -0.159125 -0.503413 0.088171 0.476002 0.065191 0.058972 -0.089291 -0.600691 0.424009 0.280832 0.173306 0.254372 0.306283 0.444022 0.808956 -0.073155 -0.186281 -0.405565 0.234871 0.063329 0.042676 -0.226852 0.074522 -0.394563 -0.121551 -0.137346 -0.002064 0.031830 -0.002974 -0.198076 -0.214800 0.033417 -0.051508 0.214849 -0.441892 -0.345725 -0.060125 0.408977 0.069578 0.025473 0.306377 0.084577 -0.372377 -0.145646 0.047754 -0.005957 -0.069993 0.242761 0.050335 0.162004 -0.196440 0.281889 0.289782 -0.386025 -0.017785 0.042269 -0.068652 -0.077345 -0.075614 0.154050 0.222092 -0.282342 -0.381396 -0.099882 -0.404073 0.308235 -0.193970 -0.054220 -0.410182 0.686299 0.188341 0.108525 -0.096470 0.057776 -0.519298 0.158907 -0.110356 -0.680454 -0.256581 -0.057672 0.296591 -0.154428 0.016131 0.108278 0.042314 0.021499 0.305457 -0.070164 -0.388017 0.058798 0.042012 -0.092340 0.221129 0.360155 -0.317444 -0.299017 0.114312 0.097874 0.009861 -0.318954 0.057477 -0.136763 -0.073172 0.186566 -0.274442 0.548829 0.296412 -0.076420 -0.019021 0.011626 0.168135 -0.239491 0.054562 -0.299644 0.024956 0.331764 -0.328962 0.211799 -0.227419 -0.385375 -0.246507 0.031075 0.419213 -0.139463 -0.009016 -0.345888 -0.163284 0.174450 -0.251779 -0.044265 0.032416 0.132231 -0.418812 -0.296411 0.120635 0.084310 -0.328936 -0.019412 0.036266 0.008859 -0.609190 -0.132944 0.210525 -0.054322 0.022271 -0.386158 0.320974 -0.044668 -0.277600 0.337547 0.109435 0.081620 0.227127 -0.332711 -0.297479 0.426058 0.325864 0.219527 -0.107190 0.014305 0.315048 -0.108692 -0.164527 -0.244555 -0.180146 -0.079565 -0.075887 -0.110540 -0.044113 0.007310 0.104883 -0.170357 0.252645 -0.120919 -0.321230 0.007094 0.106954 -0.185368 0.068322 0.371988 0.456690 0.176072 -0.250198 0.401309 0.376926 -0.218428 -0.597769 -0.080179 0.580681 0.138187 -0.060843 -0.407135 0.131202 -0.406807 -0.300497 0.009299 -0.412371 0.173019 0.094069 0.444905 -0.208737 -0.066855 -0.033618 -0.059725 0.183295 0.070650 -0.099345 -0.210522 0.218883 -0.108557 0.035159 -0.135946 -0.240256 -0.045531 0.407259 -0.103221 -0.278053 -0.323853 -0.238695 -0.362923 0.305008 -0.300007 0.231722 -0.167518 -0.083863 0.156137 0.017450 -0.001231 0.021100 0.382672 0.194402 0.270301 0.060030 -0.101196 0.301848 0.192029 0.150243 0.485130 0.039898 -0.175922 0.082269 -0.132057 -0.109525 0.158883 0.205071 -0.356754 0.036106 -0.341470 0.443152 0.356757 -0.425009 -0.044730 0.023190 0.008897 0.228974 0.228194 0.339925 -0.340095 -0.363371 -0.134098 -0.282789 -0.010741 -0.198562 0.002120 0.250926 -0.160545 0.266244 -0.257186 0.025827 -0.101663 -0.624989 0.226060 0.001268 -0.020227 0.031114 -0.102593 0.027153 0.145388 0.265278 0.682591 0.216493 -0.292189 -0.236996 -0.048237 -0.367040 -0.250543 0.366405 0.007833 0.019188
Medivac -0.206537 -0.252990 -0.021533 0.041295 0.051477 0.018532 1.059992 0.425121 -0.330369 0.161452 0.062095 -0.214893 -0.357436 0.184867 0.430789 0.458415 0.104062 -0.088085 -0.400463 0.309924 0.126608 0.313499 0.284601 0.356862 0.560722 0.697197 -0.139110 -0.174817 -0.258313 0.196928 0.047544 -0.120126 -0.437687 0.174050 -0.285288 -0.227354 -0.012671 0.055708 -0.058698 0.034115 -0.203551 -0.033018 -0.111920 -0.052703 0.078007 -0.144742 -0.226086 -0.003389 0.118620 -0.136195 -0.059181 0.212020 0.120126 -0.095658 0.101440 -0.180087 -0.094152 0.236509 0.363075 0.104548 0.089780 -0.297636 0.112627 0.248036 -0.186303 -0.117586 0.179788 0.086337 -0.214749 0.115678 0.085437 0.336641 -0.266733 -0.341412 -0.184308 -0.266610 0.188848 -0.162144 -0.106052 -0.493354 0.454568 0.108638 0.095456 0.102635 -0.045720 -0.130278 0.311557 -0.043701 -0.622729 -0.400063 0.067067 0.262240 -0.109704 -0.263720 0.136522 -0.050138 0.064237 0.229632 -0.171703 -0.289998 -0.016565 0.064823 0.069096 0.359300 0.471222 -0.108356 -0.367427 0.100541 0.117992 0.094512 -0.416746 0.111591 -0.184843 -0.060784 0.227930 -0.352931 0.524399 0.206560 0.041693 0.013438 -0.008764 -0.105608 -0.390004 0.181586 -0.094818 -0.055663 0.214645 -0.113632 0.293607 -0.265932 -0.263138 -0.358338 -0.117107 0.042794 -0.120531 0.128869 -0.608201 -0.112883 0.098509 -0.228986 -0.239022 0.075243 0.076838 -0.131858 -0.265931 -0.040468 -0.123060 -0.287534 -0.143901 -0.151023 -0.050656 -0.236728 0.162785 0.083417 0.022820 0.054214 -0.316170 0.387888 0.014216 -0.321440 0.326027 0.146427 -0.002552 -0.043112 -0.125911 -0.195098 0.214956 0.265254 0.143899 0.166878 0.225042 0.261826 -0.051240 -0.205348 -0.115442 0.046129 -0.107030 0.034407 -0.240261 -0.214404 -0.321593 0.101023 -0.231161 0.496937 -0.082795 -0.111319 -0.062019 0.098169 -0.035015 0.102545 0.332408 0.616998 0.233557 -0.322546 0.472666 0.247700 -0.175629 -0.463317 -0.111591 0.349263 0.188591 0.066688 -0.417071 -0.075749 -0.176353 -0.361834 0.223305 -0.467741 0.021545 -0.002027 0.611284 -0.349243 0.133508 -0.137765 -0.110089 0.339881 0.044599 -0.241766 0.017690 0.211582 -0.198565 -0.078290 -0.248384 -0.161492 0.008141 0.248953 -0.167861 -0.349589 -0.220267 -0.130871 -0.216670 0.237344 -0.318080 0.045066 -0.259188 -0.068543 0.065944 -0.137955 -0.064260 -0.071834 0.317426 -0.029347 0.199183 -0.066572 0.139010 0.243045 0.313674 0.061471 0.457175 -0.089770 -0.113247 -0.123751 -0.295451 0.205174 0.295052 0.263656 -0.227612 -0.036732 -0.267723 0.177043 0.178925 -0.248085 0.043884 -0.140226 0.018422 0.338597 0.436653 0.306547 -0.264948 -0.246657 -0.177167 -0.320303 -0.140855 -0.065288 -0.115349 0.164314 0.071302 0.245591 -0.365571 0.087920 -0.074923 -0.587625 0.175341 -0.100644 0.009266 0.204766 -0.095923 0.108801 0.140680 0.239154 0.525178 0.140739 -0.162247 -0.163346 -0.207410 -0.393714 -0.418617 0.429718 -0.030447 -0.201993
Reaper 0.020162 0.085187 0.016204 0.150881 -0.411089 0.068208 0.899169 0.375569 -0.228534 0.106149 0.001167 -0.035340 -0.521277 -0.012821 0.408269 -0.252786 0.029433 -0.083155 -0.598211 0.407388 0.342997 0.036737 0.147386 0.176180 0.244743 0.693476 -0.025832 -0.106168 -0.408858 0.208469 0.028226 0.187665 -0.022551 -0.024691 -0.396999 0.000860 -0.220799 0.003237 0.084935 -0.008092 -0.160420 -0.285534 0.145904 -0.033596 0.261009 -0.542499 -0.336435 -0.100990 0.505263 0.211994 0.034420 0.295632 0.023147 -0.483002 -0.257416 0.239070 0.064974 -0.311127 0.064145 0.012044 0.154276 -0.060668 0.335446 0.226637 -0.436321 0.065531 -0.102718 -0.187608 0.049277 -0.196799 0.155736 0.114126 -0.224067 -0.308015 -0.029141 -0.435677 0.318757 -0.158467 0.011900 -0.184866 0.712856 0.211631 0.092713 -0.237881 0.105902 -0.708038 0.041807 -0.130634 -0.557707 -0.110705 -0.129127 0.211187 -0.149430 0.237280 0.058991 0.128425 -0.023367 0.300280 0.013144 -0.315884 0.136936 0.016410 -0.198366 0.078047 0.181440 -0.375888 -0.156342 0.078443 0.053458 -0.058825 -0.168768 -0.039945 -0.093428 -0.081805 0.085820 -0.128804 0.424739 0.309871 -0.149936 -0.062551 0.043177 0.348603 -0.051496 -0.048097 -0.369652 0.109418 0.336785 -0.435452 0.073653 -0.125014 -0.382130 -0.065151 0.126239 0.602820 -0.100529 -0.124336 -0.038940 -0.154341 0.214810 -0.221124 0.090477 -0.004887 0.128450 -0.513014 -0.242612 0.208712 0.257353 -0.305020 0.081565 0.139637 0.096779 -0.816565 -0.336892 0.254254 -0.080061 0.009322 -0.407477 0.222298 -0.115873 -0.182219 0.286106 0.076067 0.103407 0.378074 -0.451793 -0.310579 0.505971 0.318017 0.228871 -0.328385 -0.115393 0.307052 -0.122593 -0.146823 -0.291016 -0.294362 -0.044587 -0.166359 -0.037234 0.091641 0.239983 0.099522 -0.107191 0.023997 -0.122167 -0.429347 0.095086 0.077313 -0.274590 -0.002479 0.322783 0.274516 0.076654 -0.124624 0.272616 0.411440 -0.186752 -0.567853 -0.107349 0.569723 0.086192 -0.148186 -0.317966 0.302316 -0.504800 -0.161585 -0.151412 -0.307102 0.261978 0.147522 0.273233 -0.103048 -0.182859 0.056502 -0.042848 0.001981 0.071608 -0.000791 -0.330146 0.178668 -0.048130 0.121037 -0.050020 -0.243776 -0.119852 0.431767 -0.035023 -0.143997 -0.367960 -0.298566 -0.393305 0.313904 -0.248363 0.344834 -0.094436 -0.075526 0.194347 0.135777 0.083799 0.047546 0.394543 0.327584 0.291196 0.181085 -0.235138 0.328417 0.102516 0.209622 0.394163 0.120511 -0.190908 0.260620 0.028410 -0.317122 0.006645 0.096888 -0.407828 0.114997 -0.301433 0.572422 0.424389 -0.461604 -0.146679 0.114446 -0.028605 0.070071 0.019580 0.272264 -0.351051 -0.340233 -0.090467 -0.199680 0.082664 -0.292516 0.111135 0.265092 -0.309552 0.232215 -0.080612 -0.032818 -0.060767 -0.519245 0.219445 0.112358 -0.079165 -0.106405 -0.144919 -0.054139 0.122654 0.228616 0.659897 0.231648 -0.330070 -0.298508 0.099604 -0.261181 -0.134227 0.273310 0.071226 0.173654
BarracksTechLab -0.148478 -0.165572 -0.015943 0.064200 -0.103820 0.058361 1.138455 0.456489 -0.321674 0.155691 0.036210 -0.200426 -0.421575 0.138688 0.468720 0.258747 0.069877 -0.086872 -0.509292 0.367447 0.204473 0.243057 0.279954 0.352684 0.502926 0.764608 -0.099126 -0.197605 -0.351429 0.209935 0.068049 -0.048440 -0.336792 0.120496 -0.320683 -0.176160 -0.068728 0.001889 -0.021590 0.018592 -0.208116 -0.122195 -0.042755 -0.062643 0.150121 -0.290894 -0.278835 -0.045123 0.262887 -0.036859 -0.016280 0.275135 0.103444 -0.228344 -0.026704 -0.063992 -0.057649 0.088593 0.311659 0.073115 0.140259 -0.242958 0.197387 0.278147 -0.289236 -0.072867 0.116421 0.020619 -0.161803 0.013734 0.125613 0.278122 -0.269235 -0.370826 -0.142768 -0.340875 0.243298 -0.178518 -0.073385 -0.466008 0.569851 0.150232 0.097528 0.017127 -0.010617 -0.327924 0.230235 -0.077231 -0.645424 -0.338802 0.007508 0.280147 -0.136179 -0.134115 0.121150 -0.005815 0.031449 0.259172 -0.119906 -0.351477 0.011866 0.068355 -0.014554 0.290477 0.429917 -0.230919 -0.343478 0.125314 0.118037 0.053661 -0.375962 0.091617 -0.166433 -0.069356 0.227010 -0.318404 0.538862 0.257334 -0.019446 -0.004139 0.002510 0.018813 -0.328427 0.118506 -0.197837 -0.022478 0.289867 -0.219336 0.264484 -0.252950 -0.330123 -0.323295 -0.039298 0.235461 -0.135557 0.070189 -0.486955 -0.139755 0.121716 -0.242694 -0.140236 0.067457 0.112261 -0.293023 -0.277818 0.047333 -0.032060 -0.306603 -0.090250 -0.053789 -0.040156 -0.400078 0.013602 0.147680 -0.025709 0.047242 -0.337369 0.354297 0.007576 -0.284849 0.327111 0.112465 0.050274 0.097437 -0.204643 -0.236768 0.310513 0.293210 0.188755 0.046641 0.119330 0.284194 -0.087643 -0.168161 -0.178896 -0.060479 -0.091169 -0.011920 -0.164754 -0.144857 -0.163504 0.116435 -0.198913 0.378514 -0.096534 -0.202113 -0.033263 0.104803 -0.097212 0.098562 0.350617 0.539790 0.215618 -0.286863 0.444311 0.298775 -0.198535 -0.542235 -0.070051 0.474169 0.166009 0.006765 -0.417836 0.005747 -0.289852 -0.357692 0.114094 -0.448947 0.078233 0.040116 0.528748 -0.270518 0.031835 -0.081326 -0.081107 0.280633 0.057930 -0.173962 -0.107599 0.207505 -0.151321 -0.013256 -0.183701 -0.199439 0.002644 0.325704 -0.139579 -0.321723 -0.257498 -0.179401 -0.291729 0.275450 -0.309649 0.123965 -0.211560 -0.088613 0.116432 -0.058376 -0.036811 -0.017173 0.341249 0.082113 0.239011 -0.005210 0.003840 0.268418 0.260677 0.102942 0.470177 -0.023887 -0.151416 -0.031393 -0.218016 0.055662 0.236839 0.242159 -0.290596 -0.009002 -0.314598 0.309156 0.270784 -0.337416 0.015501 -0.061039 0.023288 0.290799 0.347903 0.337758 -0.308402 -0.314322 -0.150784 -0.307277 -0.065940 -0.121335 -0.063035 0.214327 -0.044341 0.246765 -0.324124 0.064049 -0.103242 -0.613820 0.200016 -0.054966 0.005537 0.122622 -0.078979 0.077735 0.141151 0.256860 0.606539 0.193064 -0.226149 -0.179985 -0.137333 -0.374735 -0.334132 0.403647 -0.020456 -0.089495
Probe 0.226706 -0.124874 -0.042466 -0.173845 -0.199852 0.435998 0.385953 -0.153450 0.155002 -0.360331 0.291559 -0.251909 -0.268870 0.623268 -0.486218 -0.135943 0.071863 0.063120 -0.373035 0.215292 -0.086557 0.324290 0.047754 -0.016363 0.078535 0.367092 0.182056 -0.271692 -0.087221 0.091221 0.226408 -0.356965 0.093470 0.132126 -0.407906 0.119040 -0.026978 -0.076519 0.180178 -0.392037 0.221874 0.046658 -0.198936 0.046583 0.423517 -0.091055 -0.432556 0.113026 0.412625 -0.337027 0.085224 -0.085380 0.050355 0.168106 -0.390824 -0.022927 0.238556 -0.094325 -0.294072 -0.486419 0.008481 0.126095 -0.441483 0.121516 -0.263518 0.313424 0.098606 0.118558 0.124997 -0.082980 0.025978 0.198813 0.273658 -0.421833 -0.347119 0.099427 0.483726 -0.211965 -0.176447 -0.068570 0.477386 -0.191535 -0.337041 0.108319 -0.121367 -0.283732 -0.379656 0.092315 -0.114202 0.285184 0.251877 0.245939 -0.448386 -0.311609 0.153906 0.200716 0.173806 0.022363 -0.247448 -0.592923 -0.054843 0.275747 0.113474 0.123606 -0.135281 -0.795905 0.282606 0.126587 -0.022392 0.136063 -0.216810 0.408684 0.126437 0.285397 -0.220642 -0.038263 0.154794 0.342842 -0.448252 0.112528 0.441186 0.321929 -0.761426 -0.173296 -0.021627 -0.297111 0.261831 -0.056635 0.406052 0.470547 -0.274151 -0.165887 0.025911 0.076848 -0.121454 0.362073 -0.123646 -0.151461 0.400623 -0.070702 -0.004034 0.146557 0.166551 0.001966 0.253035 -0.014127 -0.170868 -0.104931 0.059875 0.124369 0.007590 -0.213562 0.335133 0.204299 0.074873 -0.216114 -0.127403 -0.178677 -0.377318 -0.504237 0.153642 -0.005433 0.399621 -0.015152 -0.092468 -0.454594 0.220917 -0.104140 0.096570 0.225315 -0.141549 -0.218524 0.038048 -0.168397 -0.063792 -0.393074 -0.063824 -0.061334 -0.361078 0.157697 0.104757 -0.321539 0.091442 -0.010932 -0.299179 -0.094479 0.122917 0.049129 -0.399534 -0.147202 0.158893 -0.363609 0.504249 -0.007915 0.263434 -0.131924 -0.419849 -0.188303 0.538034 0.887070 0.037951 0.388918 -0.364151 0.498072 -0.254596 -0.106394 0.210651 0.146767 0.054578 -0.052301 0.234391 -0.304572 -0.207993 -0.349712 -0.247736 -0.158662 0.276284 0.161559 0.411642 -0.043998 -0.468110 -0.321282 -0.339902 0.182479 -0.207922 0.167534 0.074132 -0.289725 -0.013309 -0.094057 -0.667217 0.101687 -0.253622 -0.007242 0.139270 0.150638 -0.081946 0.209453 -0.110295 -0.023156 0.088732 -0.105693 0.229460 -0.134595 0.039549 -0.153981 -0.421214 -0.013429 0.394480 -0.078035 -0.266753 -0.007598 -0.332469 0.004823 -0.590759 -0.168812 -0.209351 0.118302 -0.160110 0.394697 -0.063959 0.178382 -0.286369 0.097687 -0.122970 0.739764 -0.480672 0.125465 0.133776 0.025423 0.272416 -0.129337 0.153875 0.016291 0.080232 0.141382 0.222852 0.310872 0.084431 -0.261048 -0.323715 0.118289 0.253152 -0.387676 0.120708 0.111980 0.269106 -0.121149 -0.386496 0.451564 0.574164 -0.080914 -0.421307 -0.225740 -0.098039 -0.354757 0.009008 0.180391 0.101954 0.011372
Pylon 0.232240 -0.130896 -0.008543 -0.183746 -0.208656 0.460828 0.425479 -0.124278 0.151560 -0.372019 0.293700 -0.260340 -0.268217 0.629826 -0.486688 -0.145496 0.085576 0.075269 -0.415694 0.230967 -0.075328 0.323343 0.059185 0.000764 0.106897 0.409850 0.168855 -0.282802 -0.096310 0.080582 0.213888 -0.338506 0.113781 0.161814 -0.433425 0.093959 -0.027501 -0.079095 0.184703 -0.425912 0.221133 0.041931 -0.204968 0.050649 0.434927 -0.126836 -0.447878 0.112636 0.454584 -0.342445 0.118009 -0.093441 0.055714 0.162507 -0.409998 -0.021362 0.257932 -0.088569 -0.297982 -0.508313 0.026201 0.119107 -0.443247 0.126326 -0.267464 0.319380 0.106667 0.110494 0.117244 -0.079373 0.053577 0.203917 0.281015 -0.435566 -0.336478 0.085407 0.497253 -0.201036 -0.168032 -0.131637 0.483940 -0.171893 -0.336425 0.079349 -0.108217 -0.288467 -0.376098 0.095165 -0.128688 0.279878 0.245390 0.257833 -0.456841 -0.307824 0.158026 0.203574 0.180267 0.033324 -0.238512 -0.618367 -0.065964 0.266540 0.111983 0.114664 -0.140556 -0.796916 0.262286 0.147436 -0.024014 0.152234 -0.216245 0.423655 0.156564 0.283641 -0.245640 -0.060278 0.175026 0.361492 -0.465414 0.123700 0.447708 0.329184 -0.769994 -0.175732 -0.030938 -0.298649 0.242553 -0.059162 0.415600 0.477293 -0.292410 -0.162316 0.022773 0.088200 -0.145454 0.362502 -0.149087 -0.163330 0.393803 -0.074198 -0.009811 0.130091 0.156081 -0.005398 0.267760 -0.019034 -0.199536 -0.108213 0.057899 0.150076 -0.011574 -0.204942 0.334966 0.215949 0.099551 -0.229300 -0.116224 -0.192716 -0.378884 -0.531963 0.133537 -0.007256 0.408692 -0.009541 -0.130670 -0.493897 0.227429 -0.113568 0.118068 0.243952 -0.157256 -0.217942 0.028327 -0.160730 -0.047715 -0.409593 -0.069188 -0.058011 -0.356934 0.170249 0.111384 -0.338411 0.099974 -0.005760 -0.329599 -0.112854 0.107350 0.064205 -0.420234 -0.181265 0.169105 -0.358452 0.513175 -0.017959 0.260016 -0.118817 -0.441928 -0.182583 0.536587 0.970769 0.072851 0.410835 -0.391087 0.516884 -0.293993 -0.109979 0.237433 0.167210 0.067784 -0.077697 0.248151 -0.334999 -0.230466 -0.379246 -0.267781 -0.179204 0.288168 0.182782 0.449391 -0.027919 -0.505157 -0.335244 -0.341458 0.163892 -0.232454 0.202178 0.087055 -0.298250 -0.023072 -0.083122 -0.691333 0.092849 -0.268802 -0.001866 0.145732 0.147737 -0.073673 0.223328 -0.118503 -0.018940 0.098399 -0.108307 0.261852 -0.147803 0.031706 -0.171301 -0.434843 -0.015974 0.393714 -0.077216 -0.281213 0.015999 -0.359434 -0.015321 -0.599407 -0.166373 -0.222827 0.117390 -0.184533 0.419625 -0.057741 0.153696 -0.301702 0.104071 -0.117524 0.776534 -0.504239 0.127275 0.154311 0.019921 0.256203 -0.134548 0.155647 0.011587 0.076121 0.143458 0.220093 0.320410 0.067744 -0.251220 -0.324637 0.107700 0.267717 -0.399218 0.114192 0.093241 0.269703 -0.140181 -0.416035 0.480052 0.618884 -0.054471 -0.459092 -0.241426 -0.109228 -0.369285 0.003246 0.201313 0.138291 0.034501
Nexus 0.222200 -0.121653 -0.034743 -0.172274 -0.188369 0.426150 0.364866 -0.158140 0.154434 -0.367437 0.297798 -0.251241 -0.264675 0.619930 -0.490980 -0.143885 0.078029 0.068969 -0.365112 0.199869 -0.084552 0.326017 0.058998 -0.014394 0.088933 0.365305 0.183398 -0.270347 -0.086422 0.079574 0.211254 -0.333583 0.098757 0.138633 -0.407346 0.112655 -0.020018 -0.068705 0.178533 -0.403448 0.210673 0.049431 -0.199663 0.046192 0.416865 -0.086227 -0.420370 0.112414 0.411555 -0.341523 0.086060 -0.091831 0.049155 0.177959 -0.382771 -0.012139 0.248212 -0.096170 -0.303090 -0.498276 0.017549 0.126580 -0.443835 0.112107 -0.260407 0.301999 0.097041 0.115783 0.127860 -0.077784 0.031415 0.217394 0.278383 -0.427174 -0.348366 0.088626 0.469518 -0.185354 -0.164385 -0.070256 0.474050 -0.179049 -0.341859 0.098584 -0.120766 -0.280642 -0.367046 0.093933 -0.106065 0.276974 0.261465 0.237714 -0.433958 -0.294876 0.155079 0.208401 0.164400 0.009645 -0.234002 -0.571972 -0.061164 0.282457 0.111965 0.111579 -0.129811 -0.777612 0.278434 0.124077 -0.013329 0.140604 -0.199167 0.402397 0.142493 0.277147 -0.242096 -0.032138 0.152671 0.341992 -0.439175 0.110482 0.438905 0.317909 -0.759061 -0.175463 -0.016445 -0.287836 0.253233 -0.063303 0.384083 0.475511 -0.264590 -0.153091 0.028774 0.079775 -0.122616 0.362304 -0.119823 -0.153415 0.393239 -0.062537 -0.015044 0.149677 0.163449 0.003266 0.265351 -0.021033 -0.172023 -0.098126 0.054176 0.131603 0.011651 -0.211331 0.329327 0.214373 0.089683 -0.205999 -0.132920 -0.180315 -0.372846 -0.509575 0.137923 -0.014138 0.388465 -0.023321 -0.107989 -0.443713 0.214344 -0.105861 0.111911 0.230262 -0.125945 -0.221354 0.035050 -0.167438 -0.064357 -0.379869 -0.055499 -0.058986 -0.349672 0.169093 0.107098 -0.314149 0.089574 -0.020498 -0.303351 -0.100362 0.129198 0.044919 -0.398089 -0.168537 0.157678 -0.355546 0.511125 -0.006876 0.263406 -0.138885 -0.424347 -0.171611 0.523423 0.889657 0.056488 0.386301 -0.373003 0.503797 -0.267197 -0.096964 0.217471 0.150220 0.048255 -0.059890 0.234398 -0.313016 -0.214272 -0.349140 -0.250766 -0.163919 0.280222 0.166439 0.419499 -0.046163 -0.468169 -0.316965 -0.330093 0.175118 -0.219268 0.160968 0.069545 -0.283401 -0.011710 -0.085913 -0.661497 0.093547 -0.260909 -0.018062 0.132327 0.152777 -0.076597 0.211565 -0.106054 -0.032127 0.083357 -0.097008 0.231056 -0.129712 0.029652 -0.147204 -0.410657 -0.021861 0.371660 -0.083872 -0.269637 0.012137 -0.331921 0.003944 -0.585522 -0.167883 -0.207769 0.120882 -0.158078 0.401696 -0.060667 0.177287 -0.280459 0.101525 -0.126634 0.729412 -0.483428 0.116767 0.133666 0.025807 0.264418 -0.133657 0.162778 0.018578 0.078869 0.145054 0.222984 0.297883 0.094883 -0.257704 -0.316080 0.122636 0.246682 -0.377812 0.104613 0.096916 0.264143 -0.135876 -0.384027 0.449494 0.555439 -0.073877 -0.430791 -0.217051 -0.099674 -0.346421 0.003385 0.192272 0.117538 0.019021
EngineeringBay -0.174198 -0.220466 -0.019197 0.040138 -0.018474 0.054523 1.106496 0.438791 -0.323536 0.149590 0.053825 -0.223437 -0.389357 0.183272 0.436833 0.383126 0.088251 -0.083872 -0.463414 0.344502 0.162439 0.292323 0.297829 0.361651 0.545425 0.744151 -0.117367 -0.199032 -0.305451 0.205846 0.069406 -0.096094 -0.396465 0.160173 -0.303677 -0.210344 -0.026862 0.018488 -0.031799 0.017970 -0.203039 -0.078648 -0.090603 -0.053355 0.115431 -0.204645 -0.256913 -0.013181 0.189275 -0.098157 -0.021978 0.242535 0.119608 -0.154397 0.031603 -0.138075 -0.073401 0.184804 0.350491 0.082596 0.118099 -0.282564 0.146485 0.266412 -0.236663 -0.093369 0.163188 0.064416 -0.188672 0.072326 0.105736 0.308032 -0.273661 -0.366827 -0.169666 -0.294574 0.221601 -0.172635 -0.103792 -0.501463 0.511292 0.117416 0.088525 0.070714 -0.024397 -0.212160 0.263891 -0.055459 -0.642706 -0.370312 0.043755 0.283361 -0.124583 -0.217835 0.130452 -0.035222 0.054439 0.238484 -0.156528 -0.338617 -0.016170 0.071739 0.038915 0.330622 0.457873 -0.175642 -0.361174 0.116550 0.117714 0.076788 -0.403515 0.122091 -0.171411 -0.058276 0.231719 -0.340294 0.541266 0.229448 0.007538 0.013500 0.000884 -0.054989 -0.380080 0.155594 -0.140688 -0.053623 0.256358 -0.158258 0.295506 -0.261681 -0.298691 -0.356701 -0.086708 0.129800 -0.135399 0.109193 -0.565143 -0.125603 0.112986 -0.234249 -0.192490 0.069714 0.097759 -0.207049 -0.272008 -0.002296 -0.097439 -0.289926 -0.122385 -0.099805 -0.048838 -0.297449 0.105558 0.116944 -0.000148 0.046443 -0.318742 0.368336 0.015051 -0.318284 0.328359 0.129679 0.034606 0.020031 -0.151852 -0.223670 0.260387 0.277020 0.170311 0.126295 0.170739 0.269521 -0.067862 -0.188904 -0.141964 -0.012520 -0.102581 0.014220 -0.211841 -0.180932 -0.253893 0.102503 -0.215722 0.450417 -0.094645 -0.148322 -0.054832 0.102661 -0.063997 0.102858 0.342558 0.577905 0.242076 -0.315888 0.471329 0.266937 -0.198149 -0.514385 -0.073126 0.436493 0.179532 0.050419 -0.430160 -0.033947 -0.230459 -0.372229 0.184276 -0.458119 0.044515 0.011241 0.585357 -0.321348 0.088956 -0.128971 -0.100059 0.321469 0.055752 -0.212535 -0.027168 0.208570 -0.189992 -0.059365 -0.225989 -0.174072 0.010303 0.284176 -0.162509 -0.353861 -0.235635 -0.149613 -0.259185 0.257202 -0.312639 0.072212 -0.233014 -0.068283 0.088736 -0.102101 -0.063547 -0.036904 0.323820 0.020358 0.215455 -0.051570 0.072279 0.249942 0.278098 0.071272 0.471864 -0.058422 -0.137775 -0.093883 -0.270245 0.139369 0.264979 0.255185 -0.253392 -0.029495 -0.301378 0.235576 0.221020 -0.281854 0.038650 -0.098152 0.026936 0.335507 0.399500 0.329062 -0.280624 -0.288951 -0.159204 -0.313218 -0.101709 -0.088261 -0.101522 0.189578 0.025104 0.248855 -0.358145 0.076410 -0.104993 -0.598878 0.192319 -0.095715 0.015988 0.172055 -0.074083 0.100125 0.139105 0.253208 0.571620 0.157896 -0.193805 -0.161423 -0.181346 -0.389836 -0.368525 0.421446 -0.036112 -0.150190
Assimilator 0.264783 -0.150040 0.041849 -0.140900 -0.243132 0.508585 0.313606 -0.092040 0.236065 -0.431399 0.318509 -0.223826 -0.207076 0.627469 -0.569581 -0.157914 0.065342 0.096749 -0.406346 0.239682 -0.119064 0.326168 0.000425 -0.016031 0.098755 0.434140 0.173783 -0.224193 -0.023477 0.077910 0.210710 -0.361565 0.184464 0.229247 -0.419497 0.109325 -0.029566 0.008117 0.181112 -0.515428 0.217599 0.024575 -0.241522 0.133136 0.398731 -0.173095 -0.494204 0.115896 0.494266 -0.398031 0.162564 -0.169221 0.086537 0.158873 -0.381635 -0.087664 0.252915 -0.102684 -0.392473 -0.523499 0.028619 0.155830 -0.512856 0.063018 -0.279300 0.358270 0.102213 0.079843 0.103605 -0.095805 0.077426 0.227425 0.357400 -0.465060 -0.312018 0.077106 0.522840 -0.156902 -0.095109 -0.160392 0.457151 -0.100120 -0.329773 0.006194 -0.141533 -0.247782 -0.336689 0.086834 -0.075990 0.259111 0.229355 0.179035 -0.524581 -0.357989 0.145496 0.212707 0.194010 -0.025655 -0.179568 -0.610397 -0.007774 0.261485 0.160735 0.127168 -0.255772 -0.831662 0.334660 0.176322 -0.021309 0.201185 -0.232448 0.381060 0.210117 0.281635 -0.379621 -0.059350 0.107860 0.518877 -0.479625 0.082048 0.509034 0.341614 -0.761086 -0.206258 -0.005811 -0.292636 0.189614 -0.061711 0.397879 0.576339 -0.341524 -0.138077 0.032207 0.072147 -0.123516 0.447066 -0.185323 -0.167918 0.400823 -0.081652 -0.008550 0.142718 0.123175 0.043038 0.374216 -0.071345 -0.231840 -0.109320 0.133852 0.124509 -0.036648 -0.234029 0.341289 0.227585 0.143080 -0.282073 -0.173635 -0.245517 -0.441563 -0.591828 0.100017 0.023523 0.364554 0.006542 -0.200428 -0.561369 0.177264 -0.142706 0.114337 0.279336 -0.182232 -0.305717 0.053065 -0.204626 0.033989 -0.400430 -0.103540 -0.010876 -0.390296 0.162428 0.077723 -0.387145 0.139280 -0.004516 -0.373456 -0.148117 0.066332 0.136409 -0.470826 -0.226710 0.140071 -0.397583 0.450138 -0.015851 0.215429 -0.094668 -0.430006 -0.101792 0.473138 0.987069 0.136748 0.457704 -0.394900 0.523974 -0.308991 -0.052759 0.260081 0.225266 0.075458 -0.159976 0.296579 -0.369952 -0.264415 -0.429114 -0.326189 -0.279941 0.304094 0.232116 0.505934 -0.059079 -0.532679 -0.353063 -0.330934 0.147491 -0.290011 0.198519 0.132788 -0.278954 -0.006606 -0.071479 -0.628750 0.025012 -0.216806 0.047074 0.150813 0.092393 -0.129405 0.240905 -0.094164 -0.001626 0.133214 -0.157235 0.326618 -0.121289 0.092755 -0.226764 -0.456076 -0.008306 0.348421 -0.074748 -0.247939 0.084127 -0.376425 -0.095482 -0.628732 -0.191758 -0.197925 0.079797 -0.213473 0.378266 -0.120240 0.145266 -0.370617 0.074864 -0.058551 0.779385 -0.571204 0.098588 0.191862 0.059062 0.186109 -0.159211 0.119682 -0.025844 0.124607 0.091520 0.263032 0.347982 0.057888 -0.236869 -0.277406 0.113635 0.279742 -0.407773 0.102309 0.048702 0.222684 -0.148922 -0.499324 0.504830 0.667011 -0.023834 -0.477030 -0.312292 -0.119382 -0.329755 -0.000813 0.173288 0.230821 0.022337
Gateway 0.243248 -0.149819 -0.018894 -0.151518 -0.211489 0.448619 0.331893 -0.145722 0.187930 -0.385174 0.319673 -0.240838 -0.263799 0.645102 -0.527941 -0.149176 0.074126 0.072069 -0.379641 0.211481 -0.093408 0.344360 0.033393 -0.016509 0.078564 0.377395 0.178753 -0.254195 -0.061126 0.072566 0.210442 -0.359592 0.121015 0.168027 -0.413932 0.118587 -0.027084 -0.034023 0.173131 -0.444230 0.217856 0.044529 -0.215314 0.073357 0.418504 -0.105900 -0.448077 0.114267 0.435483 -0.363430 0.095908 -0.119649 0.060318 0.185873 -0.380176 -0.027418 0.246862 -0.103349 -0.337235 -0.511263 0.010679 0.134857 -0.472010 0.091952 -0.271193 0.323286 0.101925 0.106901 0.116358 -0.093192 0.041831 0.240683 0.321118 -0.452619 -0.358007 0.077175 0.496733 -0.185755 -0.145810 -0.075518 0.481951 -0.164556 -0.348269 0.084866 -0.154177 -0.285130 -0.363517 0.095953 -0.089796 0.272309 0.263864 0.210586 -0.484454 -0.321202 0.161961 0.212308 0.170905 -0.003632 -0.224591 -0.583057 -0.036447 0.290394 0.130458 0.130581 -0.169382 -0.819748 0.316592 0.141721 -0.014528 0.160503 -0.218787 0.392674 0.161159 0.284921 -0.284620 -0.039824 0.142579 0.394321 -0.458989 0.096732 0.478301 0.335533 -0.775304 -0.187304 -0.008758 -0.294124 0.242118 -0.060071 0.397040 0.524552 -0.293907 -0.147968 0.025442 0.075696 -0.117348 0.403015 -0.137421 -0.153336 0.413169 -0.068378 -0.019753 0.158868 0.154761 0.028619 0.301371 -0.030213 -0.192440 -0.107440 0.086050 0.121796 0.017574 -0.230896 0.346175 0.209750 0.100568 -0.227190 -0.158727 -0.200528 -0.405429 -0.538113 0.147590 -0.002927 0.394044 -0.016957 -0.137563 -0.476087 0.209092 -0.110212 0.109554 0.245740 -0.142610 -0.253654 0.040141 -0.183634 -0.038824 -0.388621 -0.067724 -0.050976 -0.381651 0.163946 0.100216 -0.338544 0.095767 -0.018523 -0.316934 -0.112836 0.126871 0.076030 -0.428011 -0.177476 0.158402 -0.370740 0.506545 -0.000567 0.265240 -0.130399 -0.425016 -0.159126 0.514012 0.914273 0.077440 0.410175 -0.382954 0.520627 -0.286336 -0.084996 0.227381 0.171380 0.061693 -0.097490 0.271519 -0.340752 -0.222247 -0.371875 -0.284891 -0.192184 0.292160 0.183177 0.456724 -0.052620 -0.511895 -0.328750 -0.350043 0.183271 -0.250812 0.172592 0.087965 -0.280602 -0.020663 -0.088138 -0.672283 0.079266 -0.256192 0.003435 0.134831 0.144653 -0.093517 0.235304 -0.082641 -0.036841 0.104623 -0.122379 0.276067 -0.116680 0.055245 -0.156810 -0.423887 -0.017037 0.377814 -0.090567 -0.264316 0.037618 -0.344848 -0.011976 -0.613417 -0.177701 -0.221580 0.120079 -0.176404 0.399015 -0.088215 0.175668 -0.320564 0.077462 -0.119596 0.756657 -0.522858 0.118293 0.143266 0.042696 0.253595 -0.143160 0.156553 0.004076 0.096180 0.132224 0.246451 0.326811 0.097494 -0.265016 -0.301233 0.123259 0.266025 -0.387258 0.104454 0.090183 0.251533 -0.142365 -0.423115 0.478255 0.599966 -0.055673 -0.453348 -0.261003 -0.100308 -0.351529 -0.021148 0.195769 0.160507 0.013445
CyberneticsCore 0.251029 -0.161835 0.058847 -0.070628 -0.226240 0.459125 0.232838 -0.063023 0.246622 -0.403535 0.329047 -0.178279 -0.197987 0.582636 -0.541898 -0.165495 0.059865 0.096807 -0.378569 0.221939 -0.110097 0.327671 -0.022370 -0.008502 0.090663 0.426980 0.144398 -0.170465 0.017252 0.044908 0.169214 -0.327398 0.179341 0.236059 -0.389218 0.103902 -0.043047 0.079098 0.151327 -0.530666 0.195398 0.027995 -0.252793 0.148491 0.354772 -0.198640 -0.451578 0.091277 0.472356 -0.385273 0.151130 -0.184755 0.103959 0.156275 -0.322588 -0.093827 0.227778 -0.107409 -0.393673 -0.483455 0.037428 0.158066 -0.494872 0.020613 -0.262780 0.342920 0.090767 0.062048 0.075819 -0.102395 0.094147 0.241520 0.373081 -0.433051 -0.289505 0.041407 0.487674 -0.100183 -0.041324 -0.153289 0.418791 -0.042226 -0.297416 -0.042409 -0.165694 -0.219883 -0.269855 0.078797 -0.040159 0.205668 0.197897 0.121919 -0.517782 -0.339994 0.135968 0.202675 0.170918 -0.063462 -0.136784 -0.531093 0.038607 0.235362 0.154970 0.114123 -0.267569 -0.769856 0.346597 0.176470 -0.005966 0.202494 -0.218038 0.314342 0.215274 0.221266 -0.425032 -0.055776 0.083487 0.561804 -0.447232 0.043936 0.514034 0.317128 -0.692376 -0.195615 0.004036 -0.255705 0.134413 -0.064959 0.352428 0.581012 -0.335842 -0.094139 0.029819 0.052001 -0.095895 0.455354 -0.179766 -0.163701 0.367335 -0.071972 -0.019647 0.129721 0.085832 0.086006 0.412248 -0.092715 -0.228908 -0.108057 0.163213 0.105538 -0.035019 -0.242691 0.317059 0.216556 0.164330 -0.266488 -0.201471 -0.237531 -0.431033 -0.565374 0.078474 0.027472 0.316727 0.010980 -0.236499 -0.540108 0.147700 -0.143702 0.102245 0.278109 -0.163385 -0.312577 0.049435 -0.211915 0.085097 -0.357111 -0.097329 0.002321 -0.386427 0.138000 0.044404 -0.366518 0.128057 0.001202 -0.349403 -0.165640 0.055092 0.166452 -0.459257 -0.247193 0.127851 -0.354027 0.374549 -0.012115 0.185210 -0.061077 -0.378356 -0.046831 0.386490 0.903595 0.175248 0.444178 -0.369348 0.500405 -0.311233 -0.013989 0.258765 0.228655 0.090464 -0.201403 0.304358 -0.380276 -0.257547 -0.408972 -0.337113 -0.306520 0.288093 0.227703 0.507380 -0.061950 -0.531981 -0.324235 -0.304379 0.129735 -0.314293 0.192494 0.149887 -0.226724 -0.008409 -0.058742 -0.546565 -0.009243 -0.195744 0.051133 0.135134 0.057007 -0.142889 0.245711 -0.059211 -0.019428 0.135450 -0.154692 0.342577 -0.095852 0.118789 -0.219285 -0.410729 -0.013187 0.278261 -0.068908 -0.223279 0.119234 -0.356415 -0.117817 -0.587676 -0.183905 -0.189764 0.068429 -0.198487 0.328147 -0.140391 0.123671 -0.397552 0.039050 -0.047032 0.723137 -0.558647 0.076743 0.185002 0.074808 0.132841 -0.151337 0.092063 -0.058606 0.141225 0.068152 0.252066 0.338202 0.066753 -0.200702 -0.218195 0.112191 0.269778 -0.358433 0.066637 0.012502 0.157520 -0.153129 -0.507181 0.476846 0.645782 0.016927 -0.463629 -0.335026 -0.106669 -0.286479 -0.031721 0.164619 0.278088 0.032502
FactoryTechLab -0.165074 -0.212837 -0.010940 0.036886 -0.037187 0.072417 1.104073 0.436665 -0.314356 0.137545 0.059842 -0.225781 -0.397795 0.194620 0.434250 0.351989 0.083711 -0.082315 -0.478042 0.350850 0.169469 0.297321 0.292161 0.369656 0.541821 0.761025 -0.109271 -0.203722 -0.311893 0.200345 0.074246 -0.105688 -0.385743 0.161336 -0.304742 -0.200861 -0.037585 0.021274 -0.033014 -0.006096 -0.209248 -0.083030 -0.097428 -0.050343 0.134873 -0.239806 -0.278185 -0.025197 0.225414 -0.101921 -0.020113 0.252799 0.120963 -0.159134 0.020173 -0.129890 -0.067792 0.161562 0.334996 0.073704 0.125338 -0.267623 0.140450 0.272370 -0.257990 -0.082301 0.154511 0.060004 -0.194443 0.052814 0.119014 0.307803 -0.260205 -0.382009 -0.166500 -0.313229 0.238751 -0.178448 -0.095924 -0.508928 0.531914 0.131031 0.085254 0.061099 -0.030618 -0.243241 0.250989 -0.061514 -0.646163 -0.367292 0.034683 0.290505 -0.140058 -0.206911 0.128593 -0.031788 0.047277 0.238029 -0.144174 -0.354025 -0.013215 0.079579 0.032243 0.324850 0.450826 -0.212301 -0.358521 0.135485 0.121927 0.076096 -0.398492 0.117100 -0.158050 -0.057155 0.225040 -0.336558 0.530291 0.247783 -0.001074 0.005830 0.011549 -0.046509 -0.384177 0.143568 -0.145939 -0.055721 0.266584 -0.166219 0.294826 -0.254357 -0.314542 -0.360356 -0.073355 0.153443 -0.139900 0.114340 -0.562518 -0.133011 0.108219 -0.239738 -0.188828 0.077630 0.108655 -0.236126 -0.270258 0.007186 -0.096157 -0.300253 -0.120271 -0.091860 -0.061814 -0.320222 0.089717 0.134621 -0.001352 0.040288 -0.330737 0.362525 0.011804 -0.321335 0.329323 0.121409 0.042902 0.039377 -0.166633 -0.240137 0.270543 0.278157 0.179355 0.122635 0.160316 0.262148 -0.074731 -0.180798 -0.148306 -0.025350 -0.105465 0.017915 -0.205497 -0.182489 -0.236331 0.099049 -0.211504 0.438828 -0.101890 -0.171110 -0.053149 0.114563 -0.080518 0.105966 0.343743 0.576875 0.249508 -0.314599 0.476363 0.273365 -0.206233 -0.527936 -0.065608 0.467339 0.188250 0.051536 -0.441488 -0.030712 -0.249842 -0.378149 0.175387 -0.458154 0.048689 0.005638 0.584842 -0.311815 0.072913 -0.129082 -0.098615 0.319105 0.058952 -0.201307 -0.042191 0.208736 -0.189601 -0.052318 -0.219766 -0.184798 0.017827 0.301148 -0.156740 -0.352640 -0.236170 -0.150203 -0.275895 0.257248 -0.315155 0.075578 -0.218765 -0.079823 0.091525 -0.093948 -0.062751 -0.027769 0.325163 0.025827 0.225598 -0.044267 0.056097 0.244025 0.273436 0.077238 0.471982 -0.050582 -0.141546 -0.083757 -0.269229 0.123007 0.253973 0.252491 -0.267770 -0.035755 -0.312684 0.256101 0.228949 -0.294956 0.032590 -0.090550 0.028148 0.343383 0.389403 0.335117 -0.286740 -0.293200 -0.159031 -0.320820 -0.092661 -0.089155 -0.090105 0.198422 0.010651 0.251822 -0.356695 0.076798 -0.112772 -0.607793 0.199387 -0.091895 0.017809 0.160904 -0.060504 0.094171 0.133372 0.261437 0.591815 0.174811 -0.207662 -0.157483 -0.177060 -0.387440 -0.360855 0.422058 -0.030822 -0.138158
SiegeTank -0.203613 -0.271167 -0.030196 0.054021 0.049042 0.026263 1.077855 0.425309 -0.326879 0.167529 0.083044 -0.214602 -0.379399 0.217364 0.426811 0.469420 0.116473 -0.091217 -0.415961 0.314454 0.130975 0.344851 0.283009 0.369453 0.574133 0.711763 -0.138931 -0.170822 -0.256451 0.201467 0.053548 -0.131965 -0.455167 0.182813 -0.285259 -0.228992 -0.000394 0.071231 -0.060728 0.034018 -0.215007 -0.030496 -0.123733 -0.055066 0.092752 -0.144301 -0.231544 -0.006369 0.107971 -0.153048 -0.059501 0.230298 0.127159 -0.083630 0.109524 -0.182538 -0.094668 0.239815 0.367093 0.108222 0.086790 -0.297231 0.104810 0.245621 -0.193614 -0.112251 0.178793 0.088727 -0.215515 0.115808 0.095292 0.359099 -0.252727 -0.355330 -0.195640 -0.273964 0.189905 -0.160618 -0.102146 -0.478640 0.460293 0.098554 0.085462 0.114641 -0.061518 -0.146883 0.318528 -0.032607 -0.620161 -0.404094 0.069122 0.259782 -0.110434 -0.264598 0.135072 -0.043252 0.057310 0.213115 -0.182724 -0.282784 -0.015148 0.066346 0.069550 0.361827 0.480209 -0.126522 -0.355111 0.101940 0.117567 0.088928 -0.411700 0.108832 -0.185735 -0.063181 0.219652 -0.349856 0.527633 0.213188 0.042595 0.005204 0.000597 -0.108582 -0.404239 0.180523 -0.085131 -0.053070 0.224314 -0.111843 0.292009 -0.256499 -0.269100 -0.356819 -0.125084 0.048925 -0.117388 0.146498 -0.612279 -0.110119 0.113667 -0.235740 -0.239420 0.075039 0.074684 -0.126629 -0.262146 -0.034913 -0.122303 -0.288149 -0.147348 -0.157748 -0.033064 -0.246618 0.159249 0.086012 0.024204 0.055440 -0.340398 0.393813 0.016122 -0.322556 0.332839 0.150983 0.004354 -0.047133 -0.129655 -0.205207 0.217915 0.275452 0.149916 0.170135 0.231357 0.258458 -0.050613 -0.214105 -0.105281 0.051427 -0.103540 0.034636 -0.262214 -0.210059 -0.328836 0.105674 -0.234806 0.489879 -0.084426 -0.107536 -0.047563 0.098751 -0.047468 0.098805 0.324162 0.623865 0.243113 -0.318546 0.490299 0.245270 -0.175073 -0.470062 -0.116537 0.339613 0.193865 0.076038 -0.429999 -0.058905 -0.181559 -0.364646 0.228956 -0.475938 0.023065 -0.006899 0.649041 -0.376352 0.145020 -0.149772 -0.123157 0.343503 0.040290 -0.255218 0.020017 0.206117 -0.226144 -0.075999 -0.269558 -0.162732 0.006041 0.246017 -0.180391 -0.362057 -0.231615 -0.151048 -0.221593 0.248061 -0.323530 0.039569 -0.259612 -0.054111 0.077924 -0.141919 -0.052740 -0.089426 0.336254 -0.027258 0.207477 -0.054306 0.148860 0.257282 0.323587 0.063672 0.468211 -0.087521 -0.113260 -0.122959 -0.307345 0.213666 0.288012 0.256884 -0.242884 -0.035760 -0.276376 0.181459 0.184664 -0.241626 0.037924 -0.148789 0.003212 0.342229 0.436093 0.318225 -0.278842 -0.248430 -0.179866 -0.328003 -0.145260 -0.069886 -0.119734 0.173769 0.073548 0.244204 -0.360192 0.080683 -0.076277 -0.595307 0.182371 -0.093409 -0.000741 0.208844 -0.104584 0.108726 0.140179 0.250399 0.538106 0.138166 -0.163235 -0.173917 -0.206295 -0.393228 -0.438808 0.456795 -0.024064 -0.213608
